tree
version=v3
num_class=1
num_tree_per_iteration=1
label_index=0
max_feature_idx=4187
objective=regression
feature_names=Column_0 Column_1 Column_2 Column_3 Column_4 Column_5 Column_6 Column_7 Column_8 Column_9 Column_10 Column_11 Column_12 Column_13 Column_14 Column_15 Column_16 Column_17 Column_18 Column_19 Column_20 Column_21 Column_22 Column_23 Column_24 Column_25 Column_26 Column_27 Column_28 Column_29 Column_30 Column_31 Column_32 Column_33 Column_34 Column_35 Column_36 Column_37 Column_38 Column_39 Column_40 Column_41 Column_42 Column_43 Column_44 Column_45 Column_46 Column_47 Column_48 Column_49 Column_50 Column_51 Column_52 Column_53 Column_54 Column_55 Column_56 Column_57 Column_58 Column_59 Column_60 Column_61 Column_62 Column_63 Column_64 Column_65 Column_66 Column_67 Column_68 Column_69 Column_70 Column_71 Column_72 Column_73 Column_74 Column_75 Column_76 Column_77 Column_78 Column_79 Column_80 Column_81 Column_82 Column_83 Column_84 Column_85 Column_86 Column_87 Column_88 Column_89 Column_90 Column_91 Column_92 Column_93 Column_94 Column_95 Column_96 Column_97 Column_98 Column_99 Column_100 Column_101 Column_102 Column_103 Column_104 Column_105 Column_106 Column_107 Column_108 Column_109 Column_110 Column_111 Column_112 Column_113 Column_114 Column_115 Column_116 Column_117 Column_118 Column_119 Column_120 Column_121 Column_122 Column_123 Column_124 Column_125 Column_126 Column_127 Column_128 Column_129 Column_130 Column_131 Column_132 Column_133 Column_134 Column_135 Column_136 Column_137 Column_138 Column_139 Column_140 Column_141 Column_142 Column_143 Column_144 Column_145 Column_146 Column_147 Column_148 Column_149 Column_150 Column_151 Column_152 Column_153 Column_154 Column_155 Column_156 Column_157 Column_158 Column_159 Column_160 Column_161 Column_162 Column_163 Column_164 Column_165 Column_166 Column_167 Column_168 Column_169 Column_170 Column_171 Column_172 Column_173 Column_174 Column_175 Column_176 Column_177 Column_178 Column_179 Column_180 Column_181 Column_182 Column_183 Column_184 Column_185 Column_186 Column_187 Column_188 Column_189 Column_190 Column_191 Column_192 Column_193 Column_194 Column_195 Column_196 Column_197 Column_198 Column_199 Column_200 Column_201 Column_202 Column_203 Column_204 Column_205 Column_206 Column_207 Column_208 Column_209 Column_210 Column_211 Column_212 Column_213 Column_214 Column_215 Column_216 Column_217 Column_218 Column_219 Column_220 Column_221 Column_222 Column_223 Column_224 Column_225 Column_226 Column_227 Column_228 Column_229 Column_230 Column_231 Column_232 Column_233 Column_234 Column_235 Column_236 Column_237 Column_238 Column_239 Column_240 Column_241 Column_242 Column_243 Column_244 Column_245 Column_246 Column_247 Column_248 Column_249 Column_250 Column_251 Column_252 Column_253 Column_254 Column_255 Column_256 Column_257 Column_258 Column_259 Column_260 Column_261 Column_262 Column_263 Column_264 Column_265 Column_266 Column_267 Column_268 Column_269 Column_270 Column_271 Column_272 Column_273 Column_274 Column_275 Column_276 Column_277 Column_278 Column_279 Column_280 Column_281 Column_282 Column_283 Column_284 Column_285 Column_286 Column_287 Column_288 Column_289 Column_290 Column_291 Column_292 Column_293 Column_294 Column_295 Column_296 Column_297 Column_298 Column_299 Column_300 Column_301 Column_302 Column_303 Column_304 Column_305 Column_306 Column_307 Column_308 Column_309 Column_310 Column_311 Column_312 Column_313 Column_314 Column_315 Column_316 Column_317 Column_318 Column_319 Column_320 Column_321 Column_322 Column_323 Column_324 Column_325 Column_326 Column_327 Column_328 Column_329 Column_330 Column_331 Column_332 Column_333 Column_334 Column_335 Column_336 Column_337 Column_338 Column_339 Column_340 Column_341 Column_342 Column_343 Column_344 Column_345 Column_346 Column_347 Column_348 Column_349 Column_350 Column_351 Column_352 Column_353 Column_354 Column_355 Column_356 Column_357 Column_358 Column_359 Column_360 Column_361 Column_362 Column_363 Column_364 Column_365 Column_366 Column_367 Column_368 Column_369 Column_370 Column_371 Column_372 Column_373 Column_374 Column_375 Column_376 Column_377 Column_378 Column_379 Column_380 Column_381 Column_382 Column_383 Column_384 Column_385 Column_386 Column_387 Column_388 Column_389 Column_390 Column_391 Column_392 Column_393 Column_394 Column_395 Column_396 Column_397 Column_398 Column_399 Column_400 Column_401 Column_402 Column_403 Column_404 Column_405 Column_406 Column_407 Column_408 Column_409 Column_410 Column_411 Column_412 Column_413 Column_414 Column_415 Column_416 Column_417 Column_418 Column_419 Column_420 Column_421 Column_422 Column_423 Column_424 Column_425 Column_426 Column_427 Column_428 Column_429 Column_430 Column_431 Column_432 Column_433 Column_434 Column_435 Column_436 Column_437 Column_438 Column_439 Column_440 Column_441 Column_442 Column_443 Column_444 Column_445 Column_446 Column_447 Column_448 Column_449 Column_450 Column_451 Column_452 Column_453 Column_454 Column_455 Column_456 Column_457 Column_458 Column_459 Column_460 Column_461 Column_462 Column_463 Column_464 Column_465 Column_466 Column_467 Column_468 Column_469 Column_470 Column_471 Column_472 Column_473 Column_474 Column_475 Column_476 Column_477 Column_478 Column_479 Column_480 Column_481 Column_482 Column_483 Column_484 Column_485 Column_486 Column_487 Column_488 Column_489 Column_490 Column_491 Column_492 Column_493 Column_494 Column_495 Column_496 Column_497 Column_498 Column_499 Column_500 Column_501 Column_502 Column_503 Column_504 Column_505 Column_506 Column_507 Column_508 Column_509 Column_510 Column_511 Column_512 Column_513 Column_514 Column_515 Column_516 Column_517 Column_518 Column_519 Column_520 Column_521 Column_522 Column_523 Column_524 Column_525 Column_526 Column_527 Column_528 Column_529 Column_530 Column_531 Column_532 Column_533 Column_534 Column_535 Column_536 Column_537 Column_538 Column_539 Column_540 Column_541 Column_542 Column_543 Column_544 Column_545 Column_546 Column_547 Column_548 Column_549 Column_550 Column_551 Column_552 Column_553 Column_554 Column_555 Column_556 Column_557 Column_558 Column_559 Column_560 Column_561 Column_562 Column_563 Column_564 Column_565 Column_566 Column_567 Column_568 Column_569 Column_570 Column_571 Column_572 Column_573 Column_574 Column_575 Column_576 Column_577 Column_578 Column_579 Column_580 Column_581 Column_582 Column_583 Column_584 Column_585 Column_586 Column_587 Column_588 Column_589 Column_590 Column_591 Column_592 Column_593 Column_594 Column_595 Column_596 Column_597 Column_598 Column_599 Column_600 Column_601 Column_602 Column_603 Column_604 Column_605 Column_606 Column_607 Column_608 Column_609 Column_610 Column_611 Column_612 Column_613 Column_614 Column_615 Column_616 Column_617 Column_618 Column_619 Column_620 Column_621 Column_622 Column_623 Column_624 Column_625 Column_626 Column_627 Column_628 Column_629 Column_630 Column_631 Column_632 Column_633 Column_634 Column_635 Column_636 Column_637 Column_638 Column_639 Column_640 Column_641 Column_642 Column_643 Column_644 Column_645 Column_646 Column_647 Column_648 Column_649 Column_650 Column_651 Column_652 Column_653 Column_654 Column_655 Column_656 Column_657 Column_658 Column_659 Column_660 Column_661 Column_662 Column_663 Column_664 Column_665 Column_666 Column_667 Column_668 Column_669 Column_670 Column_671 Column_672 Column_673 Column_674 Column_675 Column_676 Column_677 Column_678 Column_679 Column_680 Column_681 Column_682 Column_683 Column_684 Column_685 Column_686 Column_687 Column_688 Column_689 Column_690 Column_691 Column_692 Column_693 Column_694 Column_695 Column_696 Column_697 Column_698 Column_699 Column_700 Column_701 Column_702 Column_703 Column_704 Column_705 Column_706 Column_707 Column_708 Column_709 Column_710 Column_711 Column_712 Column_713 Column_714 Column_715 Column_716 Column_717 Column_718 Column_719 Column_720 Column_721 Column_722 Column_723 Column_724 Column_725 Column_726 Column_727 Column_728 Column_729 Column_730 Column_731 Column_732 Column_733 Column_734 Column_735 Column_736 Column_737 Column_738 Column_739 Column_740 Column_741 Column_742 Column_743 Column_744 Column_745 Column_746 Column_747 Column_748 Column_749 Column_750 Column_751 Column_752 Column_753 Column_754 Column_755 Column_756 Column_757 Column_758 Column_759 Column_760 Column_761 Column_762 Column_763 Column_764 Column_765 Column_766 Column_767 Column_768 Column_769 Column_770 Column_771 Column_772 Column_773 Column_774 Column_775 Column_776 Column_777 Column_778 Column_779 Column_780 Column_781 Column_782 Column_783 Column_784 Column_785 Column_786 Column_787 Column_788 Column_789 Column_790 Column_791 Column_792 Column_793 Column_794 Column_795 Column_796 Column_797 Column_798 Column_799 Column_800 Column_801 Column_802 Column_803 Column_804 Column_805 Column_806 Column_807 Column_808 Column_809 Column_810 Column_811 Column_812 Column_813 Column_814 Column_815 Column_816 Column_817 Column_818 Column_819 Column_820 Column_821 Column_822 Column_823 Column_824 Column_825 Column_826 Column_827 Column_828 Column_829 Column_830 Column_831 Column_832 Column_833 Column_834 Column_835 Column_836 Column_837 Column_838 Column_839 Column_840 Column_841 Column_842 Column_843 Column_844 Column_845 Column_846 Column_847 Column_848 Column_849 Column_850 Column_851 Column_852 Column_853 Column_854 Column_855 Column_856 Column_857 Column_858 Column_859 Column_860 Column_861 Column_862 Column_863 Column_864 Column_865 Column_866 Column_867 Column_868 Column_869 Column_870 Column_871 Column_872 Column_873 Column_874 Column_875 Column_876 Column_877 Column_878 Column_879 Column_880 Column_881 Column_882 Column_883 Column_884 Column_885 Column_886 Column_887 Column_888 Column_889 Column_890 Column_891 Column_892 Column_893 Column_894 Column_895 Column_896 Column_897 Column_898 Column_899 Column_900 Column_901 Column_902 Column_903 Column_904 Column_905 Column_906 Column_907 Column_908 Column_909 Column_910 Column_911 Column_912 Column_913 Column_914 Column_915 Column_916 Column_917 Column_918 Column_919 Column_920 Column_921 Column_922 Column_923 Column_924 Column_925 Column_926 Column_927 Column_928 Column_929 Column_930 Column_931 Column_932 Column_933 Column_934 Column_935 Column_936 Column_937 Column_938 Column_939 Column_940 Column_941 Column_942 Column_943 Column_944 Column_945 Column_946 Column_947 Column_948 Column_949 Column_950 Column_951 Column_952 Column_953 Column_954 Column_955 Column_956 Column_957 Column_958 Column_959 Column_960 Column_961 Column_962 Column_963 Column_964 Column_965 Column_966 Column_967 Column_968 Column_969 Column_970 Column_971 Column_972 Column_973 Column_974 Column_975 Column_976 Column_977 Column_978 Column_979 Column_980 Column_981 Column_982 Column_983 Column_984 Column_985 Column_986 Column_987 Column_988 Column_989 Column_990 Column_991 Column_992 Column_993 Column_994 Column_995 Column_996 Column_997 Column_998 Column_999 Column_1000 Column_1001 Column_1002 Column_1003 Column_1004 Column_1005 Column_1006 Column_1007 Column_1008 Column_1009 Column_1010 Column_1011 Column_1012 Column_1013 Column_1014 Column_1015 Column_1016 Column_1017 Column_1018 Column_1019 Column_1020 Column_1021 Column_1022 Column_1023 Column_1024 Column_1025 Column_1026 Column_1027 Column_1028 Column_1029 Column_1030 Column_1031 Column_1032 Column_1033 Column_1034 Column_1035 Column_1036 Column_1037 Column_1038 Column_1039 Column_1040 Column_1041 Column_1042 Column_1043 Column_1044 Column_1045 Column_1046 Column_1047 Column_1048 Column_1049 Column_1050 Column_1051 Column_1052 Column_1053 Column_1054 Column_1055 Column_1056 Column_1057 Column_1058 Column_1059 Column_1060 Column_1061 Column_1062 Column_1063 Column_1064 Column_1065 Column_1066 Column_1067 Column_1068 Column_1069 Column_1070 Column_1071 Column_1072 Column_1073 Column_1074 Column_1075 Column_1076 Column_1077 Column_1078 Column_1079 Column_1080 Column_1081 Column_1082 Column_1083 Column_1084 Column_1085 Column_1086 Column_1087 Column_1088 Column_1089 Column_1090 Column_1091 Column_1092 Column_1093 Column_1094 Column_1095 Column_1096 Column_1097 Column_1098 Column_1099 Column_1100 Column_1101 Column_1102 Column_1103 Column_1104 Column_1105 Column_1106 Column_1107 Column_1108 Column_1109 Column_1110 Column_1111 Column_1112 Column_1113 Column_1114 Column_1115 Column_1116 Column_1117 Column_1118 Column_1119 Column_1120 Column_1121 Column_1122 Column_1123 Column_1124 Column_1125 Column_1126 Column_1127 Column_1128 Column_1129 Column_1130 Column_1131 Column_1132 Column_1133 Column_1134 Column_1135 Column_1136 Column_1137 Column_1138 Column_1139 Column_1140 Column_1141 Column_1142 Column_1143 Column_1144 Column_1145 Column_1146 Column_1147 Column_1148 Column_1149 Column_1150 Column_1151 Column_1152 Column_1153 Column_1154 Column_1155 Column_1156 Column_1157 Column_1158 Column_1159 Column_1160 Column_1161 Column_1162 Column_1163 Column_1164 Column_1165 Column_1166 Column_1167 Column_1168 Column_1169 Column_1170 Column_1171 Column_1172 Column_1173 Column_1174 Column_1175 Column_1176 Column_1177 Column_1178 Column_1179 Column_1180 Column_1181 Column_1182 Column_1183 Column_1184 Column_1185 Column_1186 Column_1187 Column_1188 Column_1189 Column_1190 Column_1191 Column_1192 Column_1193 Column_1194 Column_1195 Column_1196 Column_1197 Column_1198 Column_1199 Column_1200 Column_1201 Column_1202 Column_1203 Column_1204 Column_1205 Column_1206 Column_1207 Column_1208 Column_1209 Column_1210 Column_1211 Column_1212 Column_1213 Column_1214 Column_1215 Column_1216 Column_1217 Column_1218 Column_1219 Column_1220 Column_1221 Column_1222 Column_1223 Column_1224 Column_1225 Column_1226 Column_1227 Column_1228 Column_1229 Column_1230 Column_1231 Column_1232 Column_1233 Column_1234 Column_1235 Column_1236 Column_1237 Column_1238 Column_1239 Column_1240 Column_1241 Column_1242 Column_1243 Column_1244 Column_1245 Column_1246 Column_1247 Column_1248 Column_1249 Column_1250 Column_1251 Column_1252 Column_1253 Column_1254 Column_1255 Column_1256 Column_1257 Column_1258 Column_1259 Column_1260 Column_1261 Column_1262 Column_1263 Column_1264 Column_1265 Column_1266 Column_1267 Column_1268 Column_1269 Column_1270 Column_1271 Column_1272 Column_1273 Column_1274 Column_1275 Column_1276 Column_1277 Column_1278 Column_1279 Column_1280 Column_1281 Column_1282 Column_1283 Column_1284 Column_1285 Column_1286 Column_1287 Column_1288 Column_1289 Column_1290 Column_1291 Column_1292 Column_1293 Column_1294 Column_1295 Column_1296 Column_1297 Column_1298 Column_1299 Column_1300 Column_1301 Column_1302 Column_1303 Column_1304 Column_1305 Column_1306 Column_1307 Column_1308 Column_1309 Column_1310 Column_1311 Column_1312 Column_1313 Column_1314 Column_1315 Column_1316 Column_1317 Column_1318 Column_1319 Column_1320 Column_1321 Column_1322 Column_1323 Column_1324 Column_1325 Column_1326 Column_1327 Column_1328 Column_1329 Column_1330 Column_1331 Column_1332 Column_1333 Column_1334 Column_1335 Column_1336 Column_1337 Column_1338 Column_1339 Column_1340 Column_1341 Column_1342 Column_1343 Column_1344 Column_1345 Column_1346 Column_1347 Column_1348 Column_1349 Column_1350 Column_1351 Column_1352 Column_1353 Column_1354 Column_1355 Column_1356 Column_1357 Column_1358 Column_1359 Column_1360 Column_1361 Column_1362 Column_1363 Column_1364 Column_1365 Column_1366 Column_1367 Column_1368 Column_1369 Column_1370 Column_1371 Column_1372 Column_1373 Column_1374 Column_1375 Column_1376 Column_1377 Column_1378 Column_1379 Column_1380 Column_1381 Column_1382 Column_1383 Column_1384 Column_1385 Column_1386 Column_1387 Column_1388 Column_1389 Column_1390 Column_1391 Column_1392 Column_1393 Column_1394 Column_1395 Column_1396 Column_1397 Column_1398 Column_1399 Column_1400 Column_1401 Column_1402 Column_1403 Column_1404 Column_1405 Column_1406 Column_1407 Column_1408 Column_1409 Column_1410 Column_1411 Column_1412 Column_1413 Column_1414 Column_1415 Column_1416 Column_1417 Column_1418 Column_1419 Column_1420 Column_1421 Column_1422 Column_1423 Column_1424 Column_1425 Column_1426 Column_1427 Column_1428 Column_1429 Column_1430 Column_1431 Column_1432 Column_1433 Column_1434 Column_1435 Column_1436 Column_1437 Column_1438 Column_1439 Column_1440 Column_1441 Column_1442 Column_1443 Column_1444 Column_1445 Column_1446 Column_1447 Column_1448 Column_1449 Column_1450 Column_1451 Column_1452 Column_1453 Column_1454 Column_1455 Column_1456 Column_1457 Column_1458 Column_1459 Column_1460 Column_1461 Column_1462 Column_1463 Column_1464 Column_1465 Column_1466 Column_1467 Column_1468 Column_1469 Column_1470 Column_1471 Column_1472 Column_1473 Column_1474 Column_1475 Column_1476 Column_1477 Column_1478 Column_1479 Column_1480 Column_1481 Column_1482 Column_1483 Column_1484 Column_1485 Column_1486 Column_1487 Column_1488 Column_1489 Column_1490 Column_1491 Column_1492 Column_1493 Column_1494 Column_1495 Column_1496 Column_1497 Column_1498 Column_1499 Column_1500 Column_1501 Column_1502 Column_1503 Column_1504 Column_1505 Column_1506 Column_1507 Column_1508 Column_1509 Column_1510 Column_1511 Column_1512 Column_1513 Column_1514 Column_1515 Column_1516 Column_1517 Column_1518 Column_1519 Column_1520 Column_1521 Column_1522 Column_1523 Column_1524 Column_1525 Column_1526 Column_1527 Column_1528 Column_1529 Column_1530 Column_1531 Column_1532 Column_1533 Column_1534 Column_1535 Column_1536 Column_1537 Column_1538 Column_1539 Column_1540 Column_1541 Column_1542 Column_1543 Column_1544 Column_1545 Column_1546 Column_1547 Column_1548 Column_1549 Column_1550 Column_1551 Column_1552 Column_1553 Column_1554 Column_1555 Column_1556 Column_1557 Column_1558 Column_1559 Column_1560 Column_1561 Column_1562 Column_1563 Column_1564 Column_1565 Column_1566 Column_1567 Column_1568 Column_1569 Column_1570 Column_1571 Column_1572 Column_1573 Column_1574 Column_1575 Column_1576 Column_1577 Column_1578 Column_1579 Column_1580 Column_1581 Column_1582 Column_1583 Column_1584 Column_1585 Column_1586 Column_1587 Column_1588 Column_1589 Column_1590 Column_1591 Column_1592 Column_1593 Column_1594 Column_1595 Column_1596 Column_1597 Column_1598 Column_1599 Column_1600 Column_1601 Column_1602 Column_1603 Column_1604 Column_1605 Column_1606 Column_1607 Column_1608 Column_1609 Column_1610 Column_1611 Column_1612 Column_1613 Column_1614 Column_1615 Column_1616 Column_1617 Column_1618 Column_1619 Column_1620 Column_1621 Column_1622 Column_1623 Column_1624 Column_1625 Column_1626 Column_1627 Column_1628 Column_1629 Column_1630 Column_1631 Column_1632 Column_1633 Column_1634 Column_1635 Column_1636 Column_1637 Column_1638 Column_1639 Column_1640 Column_1641 Column_1642 Column_1643 Column_1644 Column_1645 Column_1646 Column_1647 Column_1648 Column_1649 Column_1650 Column_1651 Column_1652 Column_1653 Column_1654 Column_1655 Column_1656 Column_1657 Column_1658 Column_1659 Column_1660 Column_1661 Column_1662 Column_1663 Column_1664 Column_1665 Column_1666 Column_1667 Column_1668 Column_1669 Column_1670 Column_1671 Column_1672 Column_1673 Column_1674 Column_1675 Column_1676 Column_1677 Column_1678 Column_1679 Column_1680 Column_1681 Column_1682 Column_1683 Column_1684 Column_1685 Column_1686 Column_1687 Column_1688 Column_1689 Column_1690 Column_1691 Column_1692 Column_1693 Column_1694 Column_1695 Column_1696 Column_1697 Column_1698 Column_1699 Column_1700 Column_1701 Column_1702 Column_1703 Column_1704 Column_1705 Column_1706 Column_1707 Column_1708 Column_1709 Column_1710 Column_1711 Column_1712 Column_1713 Column_1714 Column_1715 Column_1716 Column_1717 Column_1718 Column_1719 Column_1720 Column_1721 Column_1722 Column_1723 Column_1724 Column_1725 Column_1726 Column_1727 Column_1728 Column_1729 Column_1730 Column_1731 Column_1732 Column_1733 Column_1734 Column_1735 Column_1736 Column_1737 Column_1738 Column_1739 Column_1740 Column_1741 Column_1742 Column_1743 Column_1744 Column_1745 Column_1746 Column_1747 Column_1748 Column_1749 Column_1750 Column_1751 Column_1752 Column_1753 Column_1754 Column_1755 Column_1756 Column_1757 Column_1758 Column_1759 Column_1760 Column_1761 Column_1762 Column_1763 Column_1764 Column_1765 Column_1766 Column_1767 Column_1768 Column_1769 Column_1770 Column_1771 Column_1772 Column_1773 Column_1774 Column_1775 Column_1776 Column_1777 Column_1778 Column_1779 Column_1780 Column_1781 Column_1782 Column_1783 Column_1784 Column_1785 Column_1786 Column_1787 Column_1788 Column_1789 Column_1790 Column_1791 Column_1792 Column_1793 Column_1794 Column_1795 Column_1796 Column_1797 Column_1798 Column_1799 Column_1800 Column_1801 Column_1802 Column_1803 Column_1804 Column_1805 Column_1806 Column_1807 Column_1808 Column_1809 Column_1810 Column_1811 Column_1812 Column_1813 Column_1814 Column_1815 Column_1816 Column_1817 Column_1818 Column_1819 Column_1820 Column_1821 Column_1822 Column_1823 Column_1824 Column_1825 Column_1826 Column_1827 Column_1828 Column_1829 Column_1830 Column_1831 Column_1832 Column_1833 Column_1834 Column_1835 Column_1836 Column_1837 Column_1838 Column_1839 Column_1840 Column_1841 Column_1842 Column_1843 Column_1844 Column_1845 Column_1846 Column_1847 Column_1848 Column_1849 Column_1850 Column_1851 Column_1852 Column_1853 Column_1854 Column_1855 Column_1856 Column_1857 Column_1858 Column_1859 Column_1860 Column_1861 Column_1862 Column_1863 Column_1864 Column_1865 Column_1866 Column_1867 Column_1868 Column_1869 Column_1870 Column_1871 Column_1872 Column_1873 Column_1874 Column_1875 Column_1876 Column_1877 Column_1878 Column_1879 Column_1880 Column_1881 Column_1882 Column_1883 Column_1884 Column_1885 Column_1886 Column_1887 Column_1888 Column_1889 Column_1890 Column_1891 Column_1892 Column_1893 Column_1894 Column_1895 Column_1896 Column_1897 Column_1898 Column_1899 Column_1900 Column_1901 Column_1902 Column_1903 Column_1904 Column_1905 Column_1906 Column_1907 Column_1908 Column_1909 Column_1910 Column_1911 Column_1912 Column_1913 Column_1914 Column_1915 Column_1916 Column_1917 Column_1918 Column_1919 Column_1920 Column_1921 Column_1922 Column_1923 Column_1924 Column_1925 Column_1926 Column_1927 Column_1928 Column_1929 Column_1930 Column_1931 Column_1932 Column_1933 Column_1934 Column_1935 Column_1936 Column_1937 Column_1938 Column_1939 Column_1940 Column_1941 Column_1942 Column_1943 Column_1944 Column_1945 Column_1946 Column_1947 Column_1948 Column_1949 Column_1950 Column_1951 Column_1952 Column_1953 Column_1954 Column_1955 Column_1956 Column_1957 Column_1958 Column_1959 Column_1960 Column_1961 Column_1962 Column_1963 Column_1964 Column_1965 Column_1966 Column_1967 Column_1968 Column_1969 Column_1970 Column_1971 Column_1972 Column_1973 Column_1974 Column_1975 Column_1976 Column_1977 Column_1978 Column_1979 Column_1980 Column_1981 Column_1982 Column_1983 Column_1984 Column_1985 Column_1986 Column_1987 Column_1988 Column_1989 Column_1990 Column_1991 Column_1992 Column_1993 Column_1994 Column_1995 Column_1996 Column_1997 Column_1998 Column_1999 Column_2000 Column_2001 Column_2002 Column_2003 Column_2004 Column_2005 Column_2006 Column_2007 Column_2008 Column_2009 Column_2010 Column_2011 Column_2012 Column_2013 Column_2014 Column_2015 Column_2016 Column_2017 Column_2018 Column_2019 Column_2020 Column_2021 Column_2022 Column_2023 Column_2024 Column_2025 Column_2026 Column_2027 Column_2028 Column_2029 Column_2030 Column_2031 Column_2032 Column_2033 Column_2034 Column_2035 Column_2036 Column_2037 Column_2038 Column_2039 Column_2040 Column_2041 Column_2042 Column_2043 Column_2044 Column_2045 Column_2046 Column_2047 Column_2048 Column_2049 Column_2050 Column_2051 Column_2052 Column_2053 Column_2054 Column_2055 Column_2056 Column_2057 Column_2058 Column_2059 Column_2060 Column_2061 Column_2062 Column_2063 Column_2064 Column_2065 Column_2066 Column_2067 Column_2068 Column_2069 Column_2070 Column_2071 Column_2072 Column_2073 Column_2074 Column_2075 Column_2076 Column_2077 Column_2078 Column_2079 Column_2080 Column_2081 Column_2082 Column_2083 Column_2084 Column_2085 Column_2086 Column_2087 Column_2088 Column_2089 Column_2090 Column_2091 Column_2092 Column_2093 Column_2094 Column_2095 Column_2096 Column_2097 Column_2098 Column_2099 Column_2100 Column_2101 Column_2102 Column_2103 Column_2104 Column_2105 Column_2106 Column_2107 Column_2108 Column_2109 Column_2110 Column_2111 Column_2112 Column_2113 Column_2114 Column_2115 Column_2116 Column_2117 Column_2118 Column_2119 Column_2120 Column_2121 Column_2122 Column_2123 Column_2124 Column_2125 Column_2126 Column_2127 Column_2128 Column_2129 Column_2130 Column_2131 Column_2132 Column_2133 Column_2134 Column_2135 Column_2136 Column_2137 Column_2138 Column_2139 Column_2140 Column_2141 Column_2142 Column_2143 Column_2144 Column_2145 Column_2146 Column_2147 Column_2148 Column_2149 Column_2150 Column_2151 Column_2152 Column_2153 Column_2154 Column_2155 Column_2156 Column_2157 Column_2158 Column_2159 Column_2160 Column_2161 Column_2162 Column_2163 Column_2164 Column_2165 Column_2166 Column_2167 Column_2168 Column_2169 Column_2170 Column_2171 Column_2172 Column_2173 Column_2174 Column_2175 Column_2176 Column_2177 Column_2178 Column_2179 Column_2180 Column_2181 Column_2182 Column_2183 Column_2184 Column_2185 Column_2186 Column_2187 Column_2188 Column_2189 Column_2190 Column_2191 Column_2192 Column_2193 Column_2194 Column_2195 Column_2196 Column_2197 Column_2198 Column_2199 Column_2200 Column_2201 Column_2202 Column_2203 Column_2204 Column_2205 Column_2206 Column_2207 Column_2208 Column_2209 Column_2210 Column_2211 Column_2212 Column_2213 Column_2214 Column_2215 Column_2216 Column_2217 Column_2218 Column_2219 Column_2220 Column_2221 Column_2222 Column_2223 Column_2224 Column_2225 Column_2226 Column_2227 Column_2228 Column_2229 Column_2230 Column_2231 Column_2232 Column_2233 Column_2234 Column_2235 Column_2236 Column_2237 Column_2238 Column_2239 Column_2240 Column_2241 Column_2242 Column_2243 Column_2244 Column_2245 Column_2246 Column_2247 Column_2248 Column_2249 Column_2250 Column_2251 Column_2252 Column_2253 Column_2254 Column_2255 Column_2256 Column_2257 Column_2258 Column_2259 Column_2260 Column_2261 Column_2262 Column_2263 Column_2264 Column_2265 Column_2266 Column_2267 Column_2268 Column_2269 Column_2270 Column_2271 Column_2272 Column_2273 Column_2274 Column_2275 Column_2276 Column_2277 Column_2278 Column_2279 Column_2280 Column_2281 Column_2282 Column_2283 Column_2284 Column_2285 Column_2286 Column_2287 Column_2288 Column_2289 Column_2290 Column_2291 Column_2292 Column_2293 Column_2294 Column_2295 Column_2296 Column_2297 Column_2298 Column_2299 Column_2300 Column_2301 Column_2302 Column_2303 Column_2304 Column_2305 Column_2306 Column_2307 Column_2308 Column_2309 Column_2310 Column_2311 Column_2312 Column_2313 Column_2314 Column_2315 Column_2316 Column_2317 Column_2318 Column_2319 Column_2320 Column_2321 Column_2322 Column_2323 Column_2324 Column_2325 Column_2326 Column_2327 Column_2328 Column_2329 Column_2330 Column_2331 Column_2332 Column_2333 Column_2334 Column_2335 Column_2336 Column_2337 Column_2338 Column_2339 Column_2340 Column_2341 Column_2342 Column_2343 Column_2344 Column_2345 Column_2346 Column_2347 Column_2348 Column_2349 Column_2350 Column_2351 Column_2352 Column_2353 Column_2354 Column_2355 Column_2356 Column_2357 Column_2358 Column_2359 Column_2360 Column_2361 Column_2362 Column_2363 Column_2364 Column_2365 Column_2366 Column_2367 Column_2368 Column_2369 Column_2370 Column_2371 Column_2372 Column_2373 Column_2374 Column_2375 Column_2376 Column_2377 Column_2378 Column_2379 Column_2380 Column_2381 Column_2382 Column_2383 Column_2384 Column_2385 Column_2386 Column_2387 Column_2388 Column_2389 Column_2390 Column_2391 Column_2392 Column_2393 Column_2394 Column_2395 Column_2396 Column_2397 Column_2398 Column_2399 Column_2400 Column_2401 Column_2402 Column_2403 Column_2404 Column_2405 Column_2406 Column_2407 Column_2408 Column_2409 Column_2410 Column_2411 Column_2412 Column_2413 Column_2414 Column_2415 Column_2416 Column_2417 Column_2418 Column_2419 Column_2420 Column_2421 Column_2422 Column_2423 Column_2424 Column_2425 Column_2426 Column_2427 Column_2428 Column_2429 Column_2430 Column_2431 Column_2432 Column_2433 Column_2434 Column_2435 Column_2436 Column_2437 Column_2438 Column_2439 Column_2440 Column_2441 Column_2442 Column_2443 Column_2444 Column_2445 Column_2446 Column_2447 Column_2448 Column_2449 Column_2450 Column_2451 Column_2452 Column_2453 Column_2454 Column_2455 Column_2456 Column_2457 Column_2458 Column_2459 Column_2460 Column_2461 Column_2462 Column_2463 Column_2464 Column_2465 Column_2466 Column_2467 Column_2468 Column_2469 Column_2470 Column_2471 Column_2472 Column_2473 Column_2474 Column_2475 Column_2476 Column_2477 Column_2478 Column_2479 Column_2480 Column_2481 Column_2482 Column_2483 Column_2484 Column_2485 Column_2486 Column_2487 Column_2488 Column_2489 Column_2490 Column_2491 Column_2492 Column_2493 Column_2494 Column_2495 Column_2496 Column_2497 Column_2498 Column_2499 Column_2500 Column_2501 Column_2502 Column_2503 Column_2504 Column_2505 Column_2506 Column_2507 Column_2508 Column_2509 Column_2510 Column_2511 Column_2512 Column_2513 Column_2514 Column_2515 Column_2516 Column_2517 Column_2518 Column_2519 Column_2520 Column_2521 Column_2522 Column_2523 Column_2524 Column_2525 Column_2526 Column_2527 Column_2528 Column_2529 Column_2530 Column_2531 Column_2532 Column_2533 Column_2534 Column_2535 Column_2536 Column_2537 Column_2538 Column_2539 Column_2540 Column_2541 Column_2542 Column_2543 Column_2544 Column_2545 Column_2546 Column_2547 Column_2548 Column_2549 Column_2550 Column_2551 Column_2552 Column_2553 Column_2554 Column_2555 Column_2556 Column_2557 Column_2558 Column_2559 Column_2560 Column_2561 Column_2562 Column_2563 Column_2564 Column_2565 Column_2566 Column_2567 Column_2568 Column_2569 Column_2570 Column_2571 Column_2572 Column_2573 Column_2574 Column_2575 Column_2576 Column_2577 Column_2578 Column_2579 Column_2580 Column_2581 Column_2582 Column_2583 Column_2584 Column_2585 Column_2586 Column_2587 Column_2588 Column_2589 Column_2590 Column_2591 Column_2592 Column_2593 Column_2594 Column_2595 Column_2596 Column_2597 Column_2598 Column_2599 Column_2600 Column_2601 Column_2602 Column_2603 Column_2604 Column_2605 Column_2606 Column_2607 Column_2608 Column_2609 Column_2610 Column_2611 Column_2612 Column_2613 Column_2614 Column_2615 Column_2616 Column_2617 Column_2618 Column_2619 Column_2620 Column_2621 Column_2622 Column_2623 Column_2624 Column_2625 Column_2626 Column_2627 Column_2628 Column_2629 Column_2630 Column_2631 Column_2632 Column_2633 Column_2634 Column_2635 Column_2636 Column_2637 Column_2638 Column_2639 Column_2640 Column_2641 Column_2642 Column_2643 Column_2644 Column_2645 Column_2646 Column_2647 Column_2648 Column_2649 Column_2650 Column_2651 Column_2652 Column_2653 Column_2654 Column_2655 Column_2656 Column_2657 Column_2658 Column_2659 Column_2660 Column_2661 Column_2662 Column_2663 Column_2664 Column_2665 Column_2666 Column_2667 Column_2668 Column_2669 Column_2670 Column_2671 Column_2672 Column_2673 Column_2674 Column_2675 Column_2676 Column_2677 Column_2678 Column_2679 Column_2680 Column_2681 Column_2682 Column_2683 Column_2684 Column_2685 Column_2686 Column_2687 Column_2688 Column_2689 Column_2690 Column_2691 Column_2692 Column_2693 Column_2694 Column_2695 Column_2696 Column_2697 Column_2698 Column_2699 Column_2700 Column_2701 Column_2702 Column_2703 Column_2704 Column_2705 Column_2706 Column_2707 Column_2708 Column_2709 Column_2710 Column_2711 Column_2712 Column_2713 Column_2714 Column_2715 Column_2716 Column_2717 Column_2718 Column_2719 Column_2720 Column_2721 Column_2722 Column_2723 Column_2724 Column_2725 Column_2726 Column_2727 Column_2728 Column_2729 Column_2730 Column_2731 Column_2732 Column_2733 Column_2734 Column_2735 Column_2736 Column_2737 Column_2738 Column_2739 Column_2740 Column_2741 Column_2742 Column_2743 Column_2744 Column_2745 Column_2746 Column_2747 Column_2748 Column_2749 Column_2750 Column_2751 Column_2752 Column_2753 Column_2754 Column_2755 Column_2756 Column_2757 Column_2758 Column_2759 Column_2760 Column_2761 Column_2762 Column_2763 Column_2764 Column_2765 Column_2766 Column_2767 Column_2768 Column_2769 Column_2770 Column_2771 Column_2772 Column_2773 Column_2774 Column_2775 Column_2776 Column_2777 Column_2778 Column_2779 Column_2780 Column_2781 Column_2782 Column_2783 Column_2784 Column_2785 Column_2786 Column_2787 Column_2788 Column_2789 Column_2790 Column_2791 Column_2792 Column_2793 Column_2794 Column_2795 Column_2796 Column_2797 Column_2798 Column_2799 Column_2800 Column_2801 Column_2802 Column_2803 Column_2804 Column_2805 Column_2806 Column_2807 Column_2808 Column_2809 Column_2810 Column_2811 Column_2812 Column_2813 Column_2814 Column_2815 Column_2816 Column_2817 Column_2818 Column_2819 Column_2820 Column_2821 Column_2822 Column_2823 Column_2824 Column_2825 Column_2826 Column_2827 Column_2828 Column_2829 Column_2830 Column_2831 Column_2832 Column_2833 Column_2834 Column_2835 Column_2836 Column_2837 Column_2838 Column_2839 Column_2840 Column_2841 Column_2842 Column_2843 Column_2844 Column_2845 Column_2846 Column_2847 Column_2848 Column_2849 Column_2850 Column_2851 Column_2852 Column_2853 Column_2854 Column_2855 Column_2856 Column_2857 Column_2858 Column_2859 Column_2860 Column_2861 Column_2862 Column_2863 Column_2864 Column_2865 Column_2866 Column_2867 Column_2868 Column_2869 Column_2870 Column_2871 Column_2872 Column_2873 Column_2874 Column_2875 Column_2876 Column_2877 Column_2878 Column_2879 Column_2880 Column_2881 Column_2882 Column_2883 Column_2884 Column_2885 Column_2886 Column_2887 Column_2888 Column_2889 Column_2890 Column_2891 Column_2892 Column_2893 Column_2894 Column_2895 Column_2896 Column_2897 Column_2898 Column_2899 Column_2900 Column_2901 Column_2902 Column_2903 Column_2904 Column_2905 Column_2906 Column_2907 Column_2908 Column_2909 Column_2910 Column_2911 Column_2912 Column_2913 Column_2914 Column_2915 Column_2916 Column_2917 Column_2918 Column_2919 Column_2920 Column_2921 Column_2922 Column_2923 Column_2924 Column_2925 Column_2926 Column_2927 Column_2928 Column_2929 Column_2930 Column_2931 Column_2932 Column_2933 Column_2934 Column_2935 Column_2936 Column_2937 Column_2938 Column_2939 Column_2940 Column_2941 Column_2942 Column_2943 Column_2944 Column_2945 Column_2946 Column_2947 Column_2948 Column_2949 Column_2950 Column_2951 Column_2952 Column_2953 Column_2954 Column_2955 Column_2956 Column_2957 Column_2958 Column_2959 Column_2960 Column_2961 Column_2962 Column_2963 Column_2964 Column_2965 Column_2966 Column_2967 Column_2968 Column_2969 Column_2970 Column_2971 Column_2972 Column_2973 Column_2974 Column_2975 Column_2976 Column_2977 Column_2978 Column_2979 Column_2980 Column_2981 Column_2982 Column_2983 Column_2984 Column_2985 Column_2986 Column_2987 Column_2988 Column_2989 Column_2990 Column_2991 Column_2992 Column_2993 Column_2994 Column_2995 Column_2996 Column_2997 Column_2998 Column_2999 Column_3000 Column_3001 Column_3002 Column_3003 Column_3004 Column_3005 Column_3006 Column_3007 Column_3008 Column_3009 Column_3010 Column_3011 Column_3012 Column_3013 Column_3014 Column_3015 Column_3016 Column_3017 Column_3018 Column_3019 Column_3020 Column_3021 Column_3022 Column_3023 Column_3024 Column_3025 Column_3026 Column_3027 Column_3028 Column_3029 Column_3030 Column_3031 Column_3032 Column_3033 Column_3034 Column_3035 Column_3036 Column_3037 Column_3038 Column_3039 Column_3040 Column_3041 Column_3042 Column_3043 Column_3044 Column_3045 Column_3046 Column_3047 Column_3048 Column_3049 Column_3050 Column_3051 Column_3052 Column_3053 Column_3054 Column_3055 Column_3056 Column_3057 Column_3058 Column_3059 Column_3060 Column_3061 Column_3062 Column_3063 Column_3064 Column_3065 Column_3066 Column_3067 Column_3068 Column_3069 Column_3070 Column_3071 Column_3072 Column_3073 Column_3074 Column_3075 Column_3076 Column_3077 Column_3078 Column_3079 Column_3080 Column_3081 Column_3082 Column_3083 Column_3084 Column_3085 Column_3086 Column_3087 Column_3088 Column_3089 Column_3090 Column_3091 Column_3092 Column_3093 Column_3094 Column_3095 Column_3096 Column_3097 Column_3098 Column_3099 Column_3100 Column_3101 Column_3102 Column_3103 Column_3104 Column_3105 Column_3106 Column_3107 Column_3108 Column_3109 Column_3110 Column_3111 Column_3112 Column_3113 Column_3114 Column_3115 Column_3116 Column_3117 Column_3118 Column_3119 Column_3120 Column_3121 Column_3122 Column_3123 Column_3124 Column_3125 Column_3126 Column_3127 Column_3128 Column_3129 Column_3130 Column_3131 Column_3132 Column_3133 Column_3134 Column_3135 Column_3136 Column_3137 Column_3138 Column_3139 Column_3140 Column_3141 Column_3142 Column_3143 Column_3144 Column_3145 Column_3146 Column_3147 Column_3148 Column_3149 Column_3150 Column_3151 Column_3152 Column_3153 Column_3154 Column_3155 Column_3156 Column_3157 Column_3158 Column_3159 Column_3160 Column_3161 Column_3162 Column_3163 Column_3164 Column_3165 Column_3166 Column_3167 Column_3168 Column_3169 Column_3170 Column_3171 Column_3172 Column_3173 Column_3174 Column_3175 Column_3176 Column_3177 Column_3178 Column_3179 Column_3180 Column_3181 Column_3182 Column_3183 Column_3184 Column_3185 Column_3186 Column_3187 Column_3188 Column_3189 Column_3190 Column_3191 Column_3192 Column_3193 Column_3194 Column_3195 Column_3196 Column_3197 Column_3198 Column_3199 Column_3200 Column_3201 Column_3202 Column_3203 Column_3204 Column_3205 Column_3206 Column_3207 Column_3208 Column_3209 Column_3210 Column_3211 Column_3212 Column_3213 Column_3214 Column_3215 Column_3216 Column_3217 Column_3218 Column_3219 Column_3220 Column_3221 Column_3222 Column_3223 Column_3224 Column_3225 Column_3226 Column_3227 Column_3228 Column_3229 Column_3230 Column_3231 Column_3232 Column_3233 Column_3234 Column_3235 Column_3236 Column_3237 Column_3238 Column_3239 Column_3240 Column_3241 Column_3242 Column_3243 Column_3244 Column_3245 Column_3246 Column_3247 Column_3248 Column_3249 Column_3250 Column_3251 Column_3252 Column_3253 Column_3254 Column_3255 Column_3256 Column_3257 Column_3258 Column_3259 Column_3260 Column_3261 Column_3262 Column_3263 Column_3264 Column_3265 Column_3266 Column_3267 Column_3268 Column_3269 Column_3270 Column_3271 Column_3272 Column_3273 Column_3274 Column_3275 Column_3276 Column_3277 Column_3278 Column_3279 Column_3280 Column_3281 Column_3282 Column_3283 Column_3284 Column_3285 Column_3286 Column_3287 Column_3288 Column_3289 Column_3290 Column_3291 Column_3292 Column_3293 Column_3294 Column_3295 Column_3296 Column_3297 Column_3298 Column_3299 Column_3300 Column_3301 Column_3302 Column_3303 Column_3304 Column_3305 Column_3306 Column_3307 Column_3308 Column_3309 Column_3310 Column_3311 Column_3312 Column_3313 Column_3314 Column_3315 Column_3316 Column_3317 Column_3318 Column_3319 Column_3320 Column_3321 Column_3322 Column_3323 Column_3324 Column_3325 Column_3326 Column_3327 Column_3328 Column_3329 Column_3330 Column_3331 Column_3332 Column_3333 Column_3334 Column_3335 Column_3336 Column_3337 Column_3338 Column_3339 Column_3340 Column_3341 Column_3342 Column_3343 Column_3344 Column_3345 Column_3346 Column_3347 Column_3348 Column_3349 Column_3350 Column_3351 Column_3352 Column_3353 Column_3354 Column_3355 Column_3356 Column_3357 Column_3358 Column_3359 Column_3360 Column_3361 Column_3362 Column_3363 Column_3364 Column_3365 Column_3366 Column_3367 Column_3368 Column_3369 Column_3370 Column_3371 Column_3372 Column_3373 Column_3374 Column_3375 Column_3376 Column_3377 Column_3378 Column_3379 Column_3380 Column_3381 Column_3382 Column_3383 Column_3384 Column_3385 Column_3386 Column_3387 Column_3388 Column_3389 Column_3390 Column_3391 Column_3392 Column_3393 Column_3394 Column_3395 Column_3396 Column_3397 Column_3398 Column_3399 Column_3400 Column_3401 Column_3402 Column_3403 Column_3404 Column_3405 Column_3406 Column_3407 Column_3408 Column_3409 Column_3410 Column_3411 Column_3412 Column_3413 Column_3414 Column_3415 Column_3416 Column_3417 Column_3418 Column_3419 Column_3420 Column_3421 Column_3422 Column_3423 Column_3424 Column_3425 Column_3426 Column_3427 Column_3428 Column_3429 Column_3430 Column_3431 Column_3432 Column_3433 Column_3434 Column_3435 Column_3436 Column_3437 Column_3438 Column_3439 Column_3440 Column_3441 Column_3442 Column_3443 Column_3444 Column_3445 Column_3446 Column_3447 Column_3448 Column_3449 Column_3450 Column_3451 Column_3452 Column_3453 Column_3454 Column_3455 Column_3456 Column_3457 Column_3458 Column_3459 Column_3460 Column_3461 Column_3462 Column_3463 Column_3464 Column_3465 Column_3466 Column_3467 Column_3468 Column_3469 Column_3470 Column_3471 Column_3472 Column_3473 Column_3474 Column_3475 Column_3476 Column_3477 Column_3478 Column_3479 Column_3480 Column_3481 Column_3482 Column_3483 Column_3484 Column_3485 Column_3486 Column_3487 Column_3488 Column_3489 Column_3490 Column_3491 Column_3492 Column_3493 Column_3494 Column_3495 Column_3496 Column_3497 Column_3498 Column_3499 Column_3500 Column_3501 Column_3502 Column_3503 Column_3504 Column_3505 Column_3506 Column_3507 Column_3508 Column_3509 Column_3510 Column_3511 Column_3512 Column_3513 Column_3514 Column_3515 Column_3516 Column_3517 Column_3518 Column_3519 Column_3520 Column_3521 Column_3522 Column_3523 Column_3524 Column_3525 Column_3526 Column_3527 Column_3528 Column_3529 Column_3530 Column_3531 Column_3532 Column_3533 Column_3534 Column_3535 Column_3536 Column_3537 Column_3538 Column_3539 Column_3540 Column_3541 Column_3542 Column_3543 Column_3544 Column_3545 Column_3546 Column_3547 Column_3548 Column_3549 Column_3550 Column_3551 Column_3552 Column_3553 Column_3554 Column_3555 Column_3556 Column_3557 Column_3558 Column_3559 Column_3560 Column_3561 Column_3562 Column_3563 Column_3564 Column_3565 Column_3566 Column_3567 Column_3568 Column_3569 Column_3570 Column_3571 Column_3572 Column_3573 Column_3574 Column_3575 Column_3576 Column_3577 Column_3578 Column_3579 Column_3580 Column_3581 Column_3582 Column_3583 Column_3584 Column_3585 Column_3586 Column_3587 Column_3588 Column_3589 Column_3590 Column_3591 Column_3592 Column_3593 Column_3594 Column_3595 Column_3596 Column_3597 Column_3598 Column_3599 Column_3600 Column_3601 Column_3602 Column_3603 Column_3604 Column_3605 Column_3606 Column_3607 Column_3608 Column_3609 Column_3610 Column_3611 Column_3612 Column_3613 Column_3614 Column_3615 Column_3616 Column_3617 Column_3618 Column_3619 Column_3620 Column_3621 Column_3622 Column_3623 Column_3624 Column_3625 Column_3626 Column_3627 Column_3628 Column_3629 Column_3630 Column_3631 Column_3632 Column_3633 Column_3634 Column_3635 Column_3636 Column_3637 Column_3638 Column_3639 Column_3640 Column_3641 Column_3642 Column_3643 Column_3644 Column_3645 Column_3646 Column_3647 Column_3648 Column_3649 Column_3650 Column_3651 Column_3652 Column_3653 Column_3654 Column_3655 Column_3656 Column_3657 Column_3658 Column_3659 Column_3660 Column_3661 Column_3662 Column_3663 Column_3664 Column_3665 Column_3666 Column_3667 Column_3668 Column_3669 Column_3670 Column_3671 Column_3672 Column_3673 Column_3674 Column_3675 Column_3676 Column_3677 Column_3678 Column_3679 Column_3680 Column_3681 Column_3682 Column_3683 Column_3684 Column_3685 Column_3686 Column_3687 Column_3688 Column_3689 Column_3690 Column_3691 Column_3692 Column_3693 Column_3694 Column_3695 Column_3696 Column_3697 Column_3698 Column_3699 Column_3700 Column_3701 Column_3702 Column_3703 Column_3704 Column_3705 Column_3706 Column_3707 Column_3708 Column_3709 Column_3710 Column_3711 Column_3712 Column_3713 Column_3714 Column_3715 Column_3716 Column_3717 Column_3718 Column_3719 Column_3720 Column_3721 Column_3722 Column_3723 Column_3724 Column_3725 Column_3726 Column_3727 Column_3728 Column_3729 Column_3730 Column_3731 Column_3732 Column_3733 Column_3734 Column_3735 Column_3736 Column_3737 Column_3738 Column_3739 Column_3740 Column_3741 Column_3742 Column_3743 Column_3744 Column_3745 Column_3746 Column_3747 Column_3748 Column_3749 Column_3750 Column_3751 Column_3752 Column_3753 Column_3754 Column_3755 Column_3756 Column_3757 Column_3758 Column_3759 Column_3760 Column_3761 Column_3762 Column_3763 Column_3764 Column_3765 Column_3766 Column_3767 Column_3768 Column_3769 Column_3770 Column_3771 Column_3772 Column_3773 Column_3774 Column_3775 Column_3776 Column_3777 Column_3778 Column_3779 Column_3780 Column_3781 Column_3782 Column_3783 Column_3784 Column_3785 Column_3786 Column_3787 Column_3788 Column_3789 Column_3790 Column_3791 Column_3792 Column_3793 Column_3794 Column_3795 Column_3796 Column_3797 Column_3798 Column_3799 Column_3800 Column_3801 Column_3802 Column_3803 Column_3804 Column_3805 Column_3806 Column_3807 Column_3808 Column_3809 Column_3810 Column_3811 Column_3812 Column_3813 Column_3814 Column_3815 Column_3816 Column_3817 Column_3818 Column_3819 Column_3820 Column_3821 Column_3822 Column_3823 Column_3824 Column_3825 Column_3826 Column_3827 Column_3828 Column_3829 Column_3830 Column_3831 Column_3832 Column_3833 Column_3834 Column_3835 Column_3836 Column_3837 Column_3838 Column_3839 Column_3840 Column_3841 Column_3842 Column_3843 Column_3844 Column_3845 Column_3846 Column_3847 Column_3848 Column_3849 Column_3850 Column_3851 Column_3852 Column_3853 Column_3854 Column_3855 Column_3856 Column_3857 Column_3858 Column_3859 Column_3860 Column_3861 Column_3862 Column_3863 Column_3864 Column_3865 Column_3866 Column_3867 Column_3868 Column_3869 Column_3870 Column_3871 Column_3872 Column_3873 Column_3874 Column_3875 Column_3876 Column_3877 Column_3878 Column_3879 Column_3880 Column_3881 Column_3882 Column_3883 Column_3884 Column_3885 Column_3886 Column_3887 Column_3888 Column_3889 Column_3890 Column_3891 Column_3892 Column_3893 Column_3894 Column_3895 Column_3896 Column_3897 Column_3898 Column_3899 Column_3900 Column_3901 Column_3902 Column_3903 Column_3904 Column_3905 Column_3906 Column_3907 Column_3908 Column_3909 Column_3910 Column_3911 Column_3912 Column_3913 Column_3914 Column_3915 Column_3916 Column_3917 Column_3918 Column_3919 Column_3920 Column_3921 Column_3922 Column_3923 Column_3924 Column_3925 Column_3926 Column_3927 Column_3928 Column_3929 Column_3930 Column_3931 Column_3932 Column_3933 Column_3934 Column_3935 Column_3936 Column_3937 Column_3938 Column_3939 Column_3940 Column_3941 Column_3942 Column_3943 Column_3944 Column_3945 Column_3946 Column_3947 Column_3948 Column_3949 Column_3950 Column_3951 Column_3952 Column_3953 Column_3954 Column_3955 Column_3956 Column_3957 Column_3958 Column_3959 Column_3960 Column_3961 Column_3962 Column_3963 Column_3964 Column_3965 Column_3966 Column_3967 Column_3968 Column_3969 Column_3970 Column_3971 Column_3972 Column_3973 Column_3974 Column_3975 Column_3976 Column_3977 Column_3978 Column_3979 Column_3980 Column_3981 Column_3982 Column_3983 Column_3984 Column_3985 Column_3986 Column_3987 Column_3988 Column_3989 Column_3990 Column_3991 Column_3992 Column_3993 Column_3994 Column_3995 Column_3996 Column_3997 Column_3998 Column_3999 Column_4000 Column_4001 Column_4002 Column_4003 Column_4004 Column_4005 Column_4006 Column_4007 Column_4008 Column_4009 Column_4010 Column_4011 Column_4012 Column_4013 Column_4014 Column_4015 Column_4016 Column_4017 Column_4018 Column_4019 Column_4020 Column_4021 Column_4022 Column_4023 Column_4024 Column_4025 Column_4026 Column_4027 Column_4028 Column_4029 Column_4030 Column_4031 Column_4032 Column_4033 Column_4034 Column_4035 Column_4036 Column_4037 Column_4038 Column_4039 Column_4040 Column_4041 Column_4042 Column_4043 Column_4044 Column_4045 Column_4046 Column_4047 Column_4048 Column_4049 Column_4050 Column_4051 Column_4052 Column_4053 Column_4054 Column_4055 Column_4056 Column_4057 Column_4058 Column_4059 Column_4060 Column_4061 Column_4062 Column_4063 Column_4064 Column_4065 Column_4066 Column_4067 Column_4068 Column_4069 Column_4070 Column_4071 Column_4072 Column_4073 Column_4074 Column_4075 Column_4076 Column_4077 Column_4078 Column_4079 Column_4080 Column_4081 Column_4082 Column_4083 Column_4084 Column_4085 Column_4086 Column_4087 Column_4088 Column_4089 Column_4090 Column_4091 Column_4092 Column_4093 Column_4094 Column_4095 Column_4096 Column_4097 Column_4098 Column_4099 Column_4100 Column_4101 Column_4102 Column_4103 Column_4104 Column_4105 Column_4106 Column_4107 Column_4108 Column_4109 Column_4110 Column_4111 Column_4112 Column_4113 Column_4114 Column_4115 Column_4116 Column_4117 Column_4118 Column_4119 Column_4120 Column_4121 Column_4122 Column_4123 Column_4124 Column_4125 Column_4126 Column_4127 Column_4128 Column_4129 Column_4130 Column_4131 Column_4132 Column_4133 Column_4134 Column_4135 Column_4136 Column_4137 Column_4138 Column_4139 Column_4140 Column_4141 Column_4142 Column_4143 Column_4144 Column_4145 Column_4146 Column_4147 Column_4148 Column_4149 Column_4150 Column_4151 Column_4152 Column_4153 Column_4154 Column_4155 Column_4156 Column_4157 Column_4158 Column_4159 Column_4160 Column_4161 Column_4162 Column_4163 Column_4164 Column_4165 Column_4166 Column_4167 Column_4168 Column_4169 Column_4170 Column_4171 Column_4172 Column_4173 Column_4174 Column_4175 Column_4176 Column_4177 Column_4178 Column_4179 Column_4180 Column_4181 Column_4182 Column_4183 Column_4184 Column_4185 Column_4186 Column_4187
feature_infos=[0:0.39123227483902367] [0:0.29250480945564888] [0:0.27373126020920385] [0:0.55676497510634881] [0:0.29852632074033136] [0:0.38434578413061266] [0:1] [0:0.42512736877164609] [0:0.50845825226873431] [0:0.31380472439747009] [0:0.48142623664064749] [0:0.31370037890824354] [0:0.1713811173363689] [0:0.27022669211172407] [0:0.22625925571297101] [0:0.27156153364204166] [0:0.37278819936879737] [0:0.34842116666288225] [0:0.32335226600962086] [0:0.65745488897813997] [0:0.56572155923857792] [0:0.17171971718725421] [0:0.3245170290976393] [0:0.17507002063535401] [0:0.20112247047626097] [0:0.45889277129722755] [0:0.66127759127194186] [0:0.40370299510218643] [0:0.40419679425536931] [0:0.44876101474068275] [0:0.61780799485254134] [0:0.34411885830946232] [0:0.26419778141908784] [0:0.4993012600425068] [0:0.48454844579397077] [0:0.23190254220940459] [0:0.45263619113605036] [0:0.2935059875479421] [0:0.31091989849414781] [0:0.44268589845641937] [0:0.47308975630641514] [0:0.26936108704179612] [0:0.33916742492031321] [0:0.48001334038396426] [0:0.66199270946427491] [0:0.57076437868621044] [0:0.44710045182444658] [0:0.57158236832805165] [0:0.36787662197478216] [0:0.36986547395668334] [0:0.23689803426715902] [0:0.29286353503814488] [0:0.6797632936237934] [0:0.35405388406813471] [0:0.22251265899595618] [0:1] [0:0.4532584809525696] [0:0.34344068450280202] [0:0.44680377992403253] [0:0.48595481918480821] [0:0.70972076172393572] [0:0.48946629417478621] [0:0.69406253042891008] [0:0.5537190718094136] [0:0.45353165140271523] [0:0.31305561812873162] [0:0.26187773741243547] [0:0.48260335178664338] [0:0.50123297866315419] [0:0.48526505461885472] [0:0.26002478004787805] [0:0.3434756994559125] [0:0.30932188450351805] [0:0.55444369093938073] [0:0.67148670756462692] [0:0.3017199822650613] [0:0.43661369104605902] [0:0.41963358330745287] [0:0.31775828835248154] [0:0.36362408835577537] [0:0.51599032677187906] [0:0.43246557937099234] [0:0.36585077811027972] [0:0.43924345807131926] [0:0.23595770908064001] [0:0.30950441992272271] [0:0.53788120030745445] [0:0.32248028642487381] [0:1] [0:0.52285614599002772] [0:0.4857771388505257] [0:0.2960699737871455] [0:0.24827713244526114] [0:0.55926691242936777] [0:0.45882431909563637] [0:0.33784344775928787] [0:0.3345315664995977] [0:0.278505215718449] [0:0.23018109084782798] [0:0.51378951933583927] [0:0.44342442720300373] [0:0.38205019603632345] [0:0.21680930466547452] [0:0.37177546703069703] [0:0.52673006137340173] [0:0.30023326071609407] [0:0.33103794516767837] [0:0.34357200430073331] [0:0.31567407102390044] [0:0.36597191656814004] [0:0.59544266529516698] [0:0.22125580533908901] [0:0.30624984352528178] [0:0.20560797299868583] [0:0.20902464001494037] [0:0.73399279186432975] [0:1] [0:0.48697155366449951] [0:0.31017063007597806] [0:0.33308725493837771] [0:0.55514948363038941] [0:0.38900053254857675] [0:0.34920791445429422] [0:0.30486610334024122] [0:0.31304058470980772] [0:0.20595159058245321] [0:0.35110416998234495] [0:0.2430891184254563] [0:0.41300785887140212] [0:0.2852425310861697] [0:0.24340352236508203] [0:0.26258918530323783] [0:0.46989284740526938] [0:0.29970531182296828] [0:0.50809770566802825] [0:1] [0:0.37896289575281705] [0:0.25964136739457072] [0:0.25571301296456117] [0:0.30702732512131531] [0:0.29443801101813555] [0:0.2724275493910282] [0:0.27050678017024704] [0:0.49234295548440288] [0:0.38159561977378803] [0:0.38741110734921858] [0:0.64574023067643305] [0:0.47185564210490583] [0:0.34891595873876896] [0:0.37471426810132819] [0:0.74951027519050595] [0:0.26226460092635179] [0:0.39883802186622186] [0:0.50561334930881352] [0:0.34388137129114382] [0:0.26141104074992633] [0:0.26007120057500044] [0:0.33916456950042112] [0:0.59200206809273026] [0:0.33194987645497726] [0:0.28694060685258632] [0:0.23659298258450931] [0:0.33747934965135046] [0:0.24032428795421365] [0:0.19810065942309948] [0:0.29619194295786216] [0:0.25764908415710885] [0:0.27028358758363935] [0:0.35799033644722666] [0:0.22411331762175909] [0:0.2167393097254699] [0:0.48045685685314687] [0:0.21371641340562228] [0:0.36299379407567894] [0:0.26716881698628081] [0:0.28480641224421138] [0:0.37250761808536514] [0:0.72332206547674638] [0:0.2236718085384293] [0:0.61031441391281782] [0:0.45608291531596196] [0:0.25520102607488487] [0:0.40775750522938159] [0:0.38146552377272536] [0:0.54134163233188293] [0:0.54542352228107738] [0:0.25683062686972313] [0:0.40817995567220927] [0:0.25899470416961878] [0:0.27329288348955644] [0:0.52601776371620834] [0:0.67565436018080516] [0:0.32407393145239993] [0:0.41883529198147601] [0:0.25001359150638391] [0:0.33887777703620198] [0:0.33643093297955767] [0:0.21631473105234539] [0:0.25031595940287749] [0:0.49071184669638174] [0:0.23932456532408081] [0:0.28494454266198893] [0:0.24252467240491038] [0:0.3129946941895792] [0:0.35130845313752901] [0:0.24278321666648789] [0:1] [0:0.29523580306452279] [0:0.54934368599460104] [0:0.60887073886912346] [0:0.59211312330750188] [0:0.23351264611258038] [0:0.35189795333987883] [0:0.45207150450037259] [0:0.21289306746471037] [0:0.25915807623875869] [0:0.27369964840685418] [0:0.30167205548147979] [0:0.24163185458386818] [0:0.41045399412921518] [0:0.3132173954298898] [0:0.28361300200895068] [0:0.23704493401855828] [0:0.43311039536665541] [0:0.56320205425038827] [0:0.43485358829255183] [0:0.45954890808535881] [0:0.25969046608790919] [0:0.45294755314794405] [0:0.25042956731246169] [0:0.55648562374814969] [0:0.43338200060526472] [0:0.44882073529579769] [0:0.4744754301267623] [0:0.68419604058859107] [0:0.24028521135746564] [0:0.18175980031292907] [0:0.2377755478196206] [0:0.34845808924423538] [0:0.46486021683433909] [0:0.62740495969986176] [0:0.65226375827032712] [0:0.67270629969576257] [0:0.33531014846314033] [0:0.53924947217101282] [0:0.66455548620523608] [0:0.26081087903808364] [0:0.23032198949441868] [0:0.33008951703776857] [0:0.22667737265751298] [0:0.22656275397820752] [0:0.35161828524364108] [0:0.46636064654338821] [0:0.34130654301778712] [0:0.23913161039953379] [0:0.33277078594814691] [0:0.6252814925570267] [0:0.3678699996521444] [0:0.35802217189699426] [0:0.32588341430814116] [0:0.55504021866709352] [0:0.56602699881966723] [0:0.31602262285896121] [0:0.38160172692565564] [0:0.45528769934678787] [0:0.30356279017724985] [0:0.67285635067179805] [0:0.30239506143584216] [0:0.26242782794529079] [0:0.38421358275888562] [0:0.54867015248369444] [0:0.37113989894552979] [0:0.76443043696939839] [0:0.36029337471253292] [0:0.23471260267659277] [0:0.71725139115491365] [0:0.39110756912653671] [0:0.29913241439289551] [0:0.39107709262331614] [0:0.25538286038216784] [0:0.2889592679798112] [0:0.418975077582946] [0:0.27233614734797756] [0:0.25030969091344363] [0:0.27533913180492819] [0:0.2180939476693933] [0:0.21993803636655576] [0:0.36974661173306927] [0:0.24437101743660788] [0:1] [0:0.35763372575378971] [0:0.23230461299426777] [0:0.44220485739173243] [0:0.22908848293828177] [0:0.29088068695779473] [0:0.39873686771828437] [0:0.21415686522077187] [0:0.24370413285404111] [0:0.51564102769924725] [0:0.5486542125266537] [0:0.53762607297563358] [0:0.6253280459674937] [0:0.67099659181243076] [0:0.36438737243174429] [0:0.32618464933812785] [0:0.28692061208800745] [0:0.35090942683219728] [0:0.24055749111650648] [0:0.38856718910922466] [0:0.23802319418182022] [0:0.2603206445771884] [0:0.20192556134690254] [0:0.40123611665240422] [0:0.40177569894986176] [0:0.31850461340909542] [0:0.45134544296089046] [0:0.36630086162011383] [0:0.35619042143623741] [0:0.25968901344354278] [0:0.72087615877300104] [0:0.50972230740715574] [0:0.30220753839486153] [0:0.68901967102702033] [0:0.37016769005039368] [0:0.42380423422530583] [0:0.71238943203862914] [0:0.28982660206745797] [0:0.26554768197120882] [0:0.30963758089296939] [0:0.29409183965110258] [0:0.27235736195522342] [0:0.33034043770107313] [0:0.57734859480473555] [0:0.19068083690248364] [0:0.19040619055165217] [0:0.32129803208091778] [0:0.31505457057675856] [0:0.21975449158328086] [0:0.22405150760199932] [0:0.3917434582807493] [0:1] [0:0.32068337434682948] [0:0.50555602261421384] [0:0.40560567433251854] [0:0.35183559127017366] [0:0.25462571054029859] [0:0.40819112187398265] [0:0.27956269307115922] [0:0.26840371654322698] [0:0.32821291895257537] [0:0.33396014105082317] [0:0.35017390061579462] [0:0.46173688238377525] [0:0.28642584711689467] [0:0.26511635594575822] [0:0.34934386962522845] [0:0.23470697334086346] [0:0.26890948987031688] [0:0.37898288668113816] [0:0.33809774877830184] [0:0.2849645915826805] [0:0.31580084801457387] [0:0.44934078358284024] [0:0.40058230857252008] [0:0.35157250522986744] [0:0.59344027287582402] [0:0.23092684196424734] [0:0.30996598239292472] [0:0.2658949648152823] [0:0.45407492278866035] [0:0.49770357296492274] [0:0.25425895215666067] [0:1] [0:0.5201419019832535] [0:0.25101805815312778] [0:0.5030477961122346] [0:0.88510897996477556] [0:0.56334091126297914] [0:0.28140571579556978] [0:0.21904368204463895] [0:0.40472549799235097] [0:0.35952875582437149] [0:0.52392118928070319] [0:0.38084674881856689] [0:0.51692887629564066] [0:0.32264957291599816] [0:0.61222769420895362] [0:0.41775646893559015] [0:0.65457403095524735] [0:0.26543732867671299] [0:0.26328153700510165] [0:0.27982153013584743] [0:0.23483987424858091] [0:0.26153943444469996] [0:0.42911921590536867] [0:0.52809528516640636] [0:0.48341845718252696] [0:0.24035621479141547] [0:0.33919738369603136] [0:0.46238962019693258] [0:0.66599920156083936] [0:0.25962684735015196] [0:0.43080413230771014] [0:0.29268791011897505] [0:0.27232998293401312] [0:0.30359374642665615] [0:0.52844727288013527] [0:0.27958711905353273] [0:0.29963795911826302] [0:0.34440113406636452] [0:0.29028893636432929] [0:0.83178293269943882] [0:0.31231574623023189] [0:0.2481252362031568] [0:0.58926722595121617] [0:0.55521308859709073] [0:0.37515059616615504] [0:0.34207804768411004] [0:0.33029553712064114] [0:0.27492596256223206] [0:0.24189261338321638] [0:0.27838489645921244] [0:0.2735452845878914] [0:0.36743713125225241] [0:0.82694397682076148] [0:0.27576903637319788] [0:0.20767989909593798] [0:0.48352203571443142] [0:0.41870551117553173] [0:0.30833459127688395] [0:0.25893141452613549] [0:0.39921583794205007] [0:0.37615780718613023] [0:0.29676805024968766] [0:0.32650290380181951] [0:0.34928953319040223] [0:0.86869659878671635] [0:0.20135700292377617] [0:0.35260703711232805] [0:0.3372317068585215] [0:0.36623877605045263] [0:0.46425417982095796] [0:0.29593554310818276] [0:0.24154838322122665] [0:0.32298216435223409] [0:0.37351759615845254] [0:0.33490947339487714] [0:0.30184490921709478] [0:0.24713266362922226] [0:0.30214485510016742] [0:0.28548495213801883] [0:0.56406515236320831] [0:0.74826708012396959] [0:0.42055644781476498] [0:0.45411170620010033] [0:0.24414465716841477] [0:0.55218298749152261] [0:0.46269090839722649] [0:0.43533669208365094] [0:0.30639887541828176] [0:0.35359226453679066] [0:0.36656395345915976] [0:0.41013100008535808] [0:0.38862604314016552] [0:0.36031881081201345] [0:0.25911833890091512] [0:0.30606921050825331] [0:0.28079286637634931] [0:0.26511635594575822] [0:0.33295971867612151] [0:0.3343675966628879] [0:0.36449041523842685] [0:0.30885540604924894] [0:0.25688363930418812] [0:0.67436817681149841] [0:0.32822320404751354] [0:0.24562284667110559] [0:0.42321335709076385] [0:0.48513444031790126] [0:0.60553095878255703] [0:0.2499087842253237] [0:0.35093275943500191] [0:0.34106542884602675] [0:0.48926876342784753] [0:0.27330613831599543] [0:0.31734271877374604] [0:0.46746628043566346] [0:0.51105075765076935] [0:1] [0:0.3693351631762945] [0:0.39779113658640486] [0:0.76144093536056823] [0:0.63067917916440241] [0:0.21171562321342083] [0:0.26165798102271653] [0:0.14308940138050322] [0:0.32175968653899201] [0:0.2926848545698143] [0:0.31064004456458649] [0:0.6930638958369445] [0:0.64629553996710198] [0:0.49896847981939246] [0:0.32859121331071622] [0:0.2797024393097115] [0:0.29289192873453157] [0:0.2407422906327667] [0:0.26008687861924096] [0:0.26293257141625742] [0:0.29511737637416302] [0:0.38581356753506163] [0:0.38537294909098629] [0:0.24336115461152741] [0:0.55412297736642746] [0:0.39139264632633181] [0:0.49999699126786556] [0:0.34684447229583271] [0:0.37903198129383026] [0:0.55976205462740714] [0:0.29964769483951431] [0:0.5104613241156426] [0:0.2717680812163929] [0:0.33105396171705659] [0:0.49544161407597359] [0:0.33129837032750903] [0:0.55259423043463751] [0:0.60097728441348586] [0:0.24248932858125072] [0:0.2555119815467467] [0:0.48097273286724301] [0:0.40448725978276795] [0:0.3282003199179282] [0:0.47697552834461016] [0:0.35807322786078333] [0:0.36510094459258707] [0:0.68522312601562796] [0:0.2899493810996816] [0:0.31644513592650453] [0:0.31978054386685006] [0:0.29791002564999103] [0:0.50511326891981889] [0:1] [0:0.27288301815262744] [0:0.38362675671388741] [0:0.68727099923437995] [0:0.24340277720558062] [0:0.27369403199025694] [0:0.27930916620566654] [0:0.23362052097130245] [0:0.4288011723051342] [0:0.4751004329449332] [0:0.80057184848923579] [0:0.54941430980482919] [0:0.44111700664661752] [0:0.29817708307304913] [0:0.55681874717217605] [0:0.18123491407217318] [0:0.36829932171228047] [0:0.47398147712333411] [0:0.2415192564333907] [0:0.27882614307756493] [0:0.29115235528944966] [0:0.33264123396794781] [0:0.48130789775748556] [0:0.78772567230736512] [0:0.5932491365403042] [0:0.47996587252068873] [0:0.2992070239405617] [0:0.31287611474487603] [0:0.47922464580538671] [0:0.38529623470409846] [0:0.28475003944409877] [0:0.29304386109946967] [0:0.87296204923004317] [0:0.32550405575491159] [0:0.70520857583887564] [0:0.52164372045881191] [0:0.38440872243886581] [0:0.35060224081828967] [0:0.50565304872307715] [0:0.22943110522528307] [0:0.28511447243069371] [0:0.56753782253582485] [0:0.28875797888311738] [0:0.30129568824131164] [0:0.28463435658179737] [0:0.27080140423591581] [0:0.29042421104023919] [0:0.38577291605047404] [0:0.29629850387828977] [0:0.51996879894006176] [0:0.61225052208278652] [0:0.5211282384100262] [0:0.22751357359885088] [0:0.19091565259605803] [0:0.47320921861935483] [0:0.29085959879472939] [0:0.45530127571459789] [0:0.58161315171869898] [0:0.410160704118956] [0:0.23296017748823261] [0:0.73520274673624597] [0:0.49164021405884911] [0:0.58987364769896367] [0:0.30507157155090625] [0:0.41399102822082451] [0:0.53860228011251421] [0:0.33967734045488795] [0:0.43254174578995247] [0:0.3629697814864693] [0:0.69558375983045795] [0:0.27930373026509753] [0:0.52953926715683353] [0:0.49697241440281376] [0:1] [0:0.39108278065435476] [0:0.33802636903628008] [0:0.21876921584136447] [0:0.21949255479630952] [0:0.32495053700426701] [0:0.24760335985593535] [0:0.37371322028549997] [0:0.20007572806210389] [0:0.46213941381177431] [0:0.45780920929754704] [0:0.19151062560861207] [0:0.24428499166995518] [0:0.27355135380587808] [0:0.38257936946848847] [0:1] [0:0.35794042500570794] [0:0.34395789849712627] [0:0.2868441243572456] [0:0.42034354838284466] [0:0.30519968081464849] [0:0.50704390553001522] [0:0.50632101396155649] [0:0.34422626217835278] [0:0.40599273866635893] [0:0.3558448669303878] [0:0.63279294467733294] [0:0.5020915710598175] [0:0.29167502355125663] [0:0.42850033817128697] [0:0.73173289698116628] [0:0.45824966870596001] [0:0.73201495277055761] [0:0.32943206395101077] [0:0.75404323781257776] [0:0.30323372156510564] [0:0.50011998014815506] [0:0.31263915505689494] [0:0.28916726204213988] [0:0.44742942485841014] [0:0.33798721109293889] [0:0.33397159030373735] [0:0.46850440472647992] [0:0.30553738165557792] [0:0.78904863270165382] [0:0.67915725829236839] [0:0.6100261899932673] [0:0.34056643352721239] [0:0.68535816924658188] [0:0.51596079459132493] [0:0.46797282570020138] [0:0.29286353503814488] [0:0.26185408940380067] [0:0.35162085950206601] [0:0.34198949962491348] [0:0.36382600434705614] [0:0.61507998383676066] [0:0.39310780108399335] [0:0.26140874131170411] [0:0.47512103656581417] [0:0.43680279212965356] [0:0.29412110769756106] [0:0.38628657843244768] [0:0.63297045281850095] [0:0.28670578058996349] [0:1] [0:0.29773888207996302] [0:0.26664645714862262] [0:0.63798154647191996] [0:1] [0:0.30897469315574688] [0:0.20979236280580485] [0:0.44758184279899432] [0:0.2686579299698153] [0:0.29731047036596592] [0:0.31021906755417306] [0:0.26510518566971042] [0:0.49674047135493932] [0:0.23637811652961774] [0:0.35575843943913665] [0:0.61081613282759339] [0:1] [0:0.28601003545805342] [0:0.3081061615419543] [0:0.49426928643574469] [0:0.52071756326612562] [0:0.41396490887071818] [0:0.64597481577528471] [0:0.77014709463198561] [0:0.49210688839522937] [0:0.18338151116121232] [0:0.26995181997627338] [0:0.22526864778143088] [0:0.68252430519519047] [0:0.39740667241074829] [0:1] [0:0.3746564346257007] [0:0.1876374728720272] [0:0.2637931162953211] [0:0.30759364775587689] [0:0.34859445659990268] [0:0.31375545112236453] [0:0.25353972729777463] [0:0.29885896367954856] [0:0.4915237382624506] [0:0.36579697265643901] [0:0.17988807820053085] [0:0.2704761133584111] [0:0.84963336163947967] [0:0.35257864212200424] [0:0.2625270721340297] [0:0.3953679018408367] [0:0.24352562665964178] [0:1] [0:0.50218680489517431] [0:0.52039185522845099] [0:0.35118960080445433] [0:0.43447368016576121] [0:0.33151545172420882] [0:0.29375954562736289] [0:0.30546665254543987] [0:0.4072121863970235] [0:0.3174256062306644] [0:0.27026240439941202] [0:0.39304499781463553] [0:0.42922484927775156] [0:0.36121786717648069] [0:0.49399416616080272] [0:0.21346509300839894] [0:0.73731474327594471] [0:0.36534196635079197] [0:0.2749092833797116] [0:0.29565304052217645] [0:0.77838589128866442] [0:0.58295473477966864] [0:0.30923836815445993] [0:0.42588251867531002] [0:0.56003253096803296] [0:0.32360717135887329] [0:0.23369056888002346] [0:0.52724402603034348] [0:0.36794396190457057] [0:0.22972970823346897] [0:0.40044184248177384] [0:0.303334548844854] [0:0.26891309071257091] [0:0.37734599304480121] [0:1] [0:0.25368443276026664] [0:0.43448826106596689] [0:0.26847166477356094] [0:0.33979958641478214] [0:1] [0:0.47534308593333524] [0:0.27222088045849085] [0:0.48181517406468327] [0:0.3869716061106474] [0:0.27597814948875637] [0:0.40588312866315007] [0:0.33559768697374037] [0:0.58058354939277301] [0:0.37487976746460849] [0:0.63212215170002972] [0:0.35027017539709765] [0:0.30786786481508266] [0:0.21054061483989428] [0:0.31159917585381736] [0:0.24131931671273327] [0:0.75323133927198682] [0:0.47640061692596219] [0:0.40144585057384263] [0:0.44117882626954158] [0:0.21085866679987014] [0:0.50429555941542936] [0:0.3180464987656616] [0:0.31408773075861068] [0:0.26651432802457165] [0:0.26917641360152256] [0:0.27439937139041398] [0:0.33136970322994797] [0:0.29184631228929586] [0:0.26110071984670885] [0:0.21340970315395383] [0:0.2044226569919915] [0:0.33915027554763094] [0:0.33297460429548709] [0:0.29393934878956407] [0:0.26856848013316792] [0:0.31432002208072102] [0:0.5323687522963223] [0:0.25784220744154623] [0:0.20951483330688331] [0:0.21903181662339666] [0:0.21654174826074948] [0:0.27770899621590861] [0:0.26563674016522709] [0:0.46978953112641531] [0:0.48343538603028591] [0:0.49459028410212275] [0:0.40755964622293089] [0:0.85281570669951812] [0:0.40061933038473668] [0:0.61072443283407185] [0:0.48222324090861352] [0:0.4481294763754009] [0:0.46336533508819355] [0:0.21868786346462268] [0:0.23801138140458744] [0:0.51384969305282391] [0:0.26529051648801577] [0:0.24478578483255134] [0:1] [0:0.37223589622557729] [0:0.29575423070606599] [0:0.44671335561949743] [0:0.30487438325766336] [0:0.27902583025306238] [0:0.25223834237889936] [0:0.25112539402278683] [0:0.33544393556662344] [0:0.20578235984457283] [0:0.25067113365034766] [0:0.24988576725923162] [0:0.25015516987563696] [0:0.26824979930209936] [0:0.33937999589591489] [0:0.63407447039730236] [0:0.29747663161750665] [0:0.27461569531836416] [0:0.3254754728193493] [0:0.35165464259037843] [0:0.46023866117962936] [0:0.45950027034402607] [0:0.30781028236861657] [0:0.55111130911092754] [0:0.76927875140221613] [0:0.42312972601639531] [0:0.23334093353930441] [0:0.2280217657167744] [0:0.23549304204995458] [0:0.30043157793346403] [0:0.25702057063022171] [0:0.30930176070372328] [0:0.64923591587107465] [0:0.39693736969871907] [0:0.28112336000076754] [0:0.34671412694021359] [0:0.25041046111276538] [0:0.24664231771674555] [0:0.2413484801766792] [0:0.36916777571188614] [0:0.66001663843209701] [0:0.28622396598574823] [0:0.43322273515631943] [0:0.34254532462412912] [0:0.30767645553207223] [0:0.30661773287009664] [0:0.46793412318276828] [0:0.27005249674213871] [0:0.41783427852616634] [0:0.5126961577898671] [0:0.34938669047817283] [0:0.23972115419517118] [0:0.17482149224898572] [0:0.28521198680906518] [0:0.51220047516790523] [0:0.53625668024310835] [0:0.49317376288366532] [0:0.28658468784612501] [0:0.44053413913312311] [0:0.35682442000505116] [0:0.58830974677664449] [0:0.5320460832766809] [0:0.37158272239214207] [0:0.57566660518121149] [0:0.23921760423715135] [0:0.19536150614895334] [0:0.34237761677808143] [0:0.20494117049438523] [0:0.25958249383996018] [0:0.22573258580213476] [0:0.56458907116461132] [0:0.39047620699833108] [0:0.19054241079257386] [0:0.47884227663986767] [0:0.36177485124376774] [0:0.5380150268999524] [0:0.22342963830734194] [0:0.31852715376004276] [0:0.4442551107054451] [0:0.51941058045884314] [0:0.55222335133325962] [0:0.46288098565418856] [0:0.29142050248693502] [0:0.45500618142325761] [0:0.57140726061262037] [0:0.33324645660655672] [0:0.31805185338316971] [0:0.36868163629648054] [0:0.39551168806809794] [0:0.28634810226540547] [0:0.35028756163342661] [0:0.36658363338467226] [0:0.44983626017740158] [0:0.17815886962855093] [0:0.18017439528696466] [0:0.3693303762399906] [0:0.26811565139636273] [0:0.43750397792650753] [0:0.34150857341830931] [0:0.2902644134426639] [0:0.81746194878327216] [0:0.77882416370030461] [0:0.23979961609793879] [0:0.19199651619670197] [0:0.24715896740348559] [0:0.2978266377139136] [0:0.38119069071648615] [0:0.56123676166430814] [0:0.50170077318729212] [0:0.39478500268265837] [0:0.3148148825847687] [0:0.44473738466013035] [0:0.40074506814959193] [0:0.38480794981016186] [0:0.22313427351550807] [0:0.28085059109967864] [0:0.24117728677197245] [0:0.23510470316328549] [0:0.46504141530520088] [0:0.63071894052002953] [0:0.58258465060989795] [0:0.56404368732262877] [0:0.70617050918457691] [0:0.26076731007828446] [0:0.2969411999464539] [0:0.39774977898777841] [0:0.6455936503871369] [0:0.48578059733423928] [0:0.33004331710401136] [0:0.42876259537108358] [0:0.36444690152727033] [0:0.25385007579963226] [0:0.51697584471145053] [0:0.36700322484017256] [0:0.086803195426010435] [0:0.58831351860469017] [0:0.81601546133943381] [0:0.21903181662339666] [0:0.22156525507501168] [0:0.59066569274181235] [0:0.23999274831412418] [0:0.69789988315649487] [0:0.4257434670158588] [0:0.33099623424029384] [0:0.39587893625040899] [0:0.24070800163701095] [0:0.36675113081753918] [0:0.22378948499706686] [0:0.24286262097283054] [0:0.70617398483756177] [0:0.21489202446091138] [0:0.28666233079062253] [0:0.30379719226702961] [0:0.23233753408860272] [0:0.23551256958422429] [0:0.25365243569374812] [0:0.39997359017363743] [0:0.36363977323570312] [0:0.56871683083858438] [0:0.32973120300620262] [0:0.2036530865063457] [0:0.31953756449932214] [0:0.40225071997695505] [0:0.52690605708114313] [0:0.39582843759447478] [0:0.45310362963554318] [0:0.24832797927716543] [0:0.34295620610777255] [0:0.32303449681415358] [0:0.23108755714512019] [0:0.21218675936608949] [0:0.24060124730833757] [0:0.61288336165246016] [0:0.48299268037357862] [0:0.43180984832777608] [0:0.29966480839584853] [0:0.20861223802711321] [0:0.27626967551932269] [0:0.17750595328693444] [0:0.21843148457689573] [0:0.29772493406941047] [0:0.39859047247227425] [0:0.2577927797343485] [0:0.3815192023437679] [0:0.25128671825681909] [0:0.40816046649706716] [0:0.24004572481912745] [0:0.20355492381916923] [0:0.2546366235595916] [0:0.43900119202802779] [0:0.44174407792167614] [0:0.41580655803524047] [0:0.21977130057947339] [0:0.32755830568292849] [0:0.58242868352698063] [0:0.52500623193666207] [0:0.41876136507790829] [0:0.35902760359292252] [0:0.39538358019655367] [0:0.29472942581294281] [0:0.24342302575081862] [0:0.40649873211172516] [0:0.65631670815047305] [0:0.25712279608333738] [0:0.63323345399369313] [0:0.32740001700416549] [0:0.19709848221069251] [0:0.29016410299609463] [0:0.27955545827244044] [0:0.35404054577094868] [0:0.49431110253949462] [0:0.27367740060442602] [0:0.24867041258852776] [0:0.30763594139135786] [0:0.3054251664697884] [0:0.20156186319931479] [0:0.30815881790058891] [0:0.4139315978899068] [0:0.21741993251305156] [0:0.68888907843414804] [0:0.26129323180986702] [0:0.23970940144864342] [0:0.45870848895187905] [0:0.28832734532214005] [0:0.28099870554018114] [0:0.32111834615746304] [0:0.26402120822133995] [0:0.30600757698289949] [0:1] [0:0.28698794381850129] [0:0.21251838764289258] [0:0.32338862564902987] [0:0.30148479040246373] [0:0.26770881758548221] [0:0.46108466214549859] [0:0.31396118800277778] [0:0.39609585395039337] [0:0.26791624227704225] [0:0.41853826171690545] [0:0.33962380015319488] [0:0.61294313577182957] [0:0.62586013140540964] [0:0.34936528954049162] [0:0.44772780775747301] [0:0.43177785857252687] [0:0.33454437549926563] [0:0.29684293179206978] [0:0.19212435559071148] [0:0.22236694238222401] [0:0.76261315654473483] [0:0.24030664815981329] [0:0.30202049559338656] [0:0.28633425764607989] [0:0.2173764645558427] [0:0.3760104450483735] [0:0.62093602468615505] [0:0.20677864791588352] [0:0.53388503115553154] [0:0.48489123473825008] [0:0.3854215068455128] [0:0.44735253314122314] [0:0.24982270893864264] [0:0.30860817695971282] [0:0.46765928004696294] [0:0.25111277740317972] [0:0.21945946517321352] [0:0.32104911531107772] [0:0.25506887559406149] [0:0.3716844815010576] [0:0.25282359717924757] [0:0.33730512589817602] [0:0.18025630249659944] [0:0.30548881371371256] [0:0.60393073369530204] [0:0.23921325874197696] [0:1] [0:0.51465859975196482] [0:0.35118960080445433] [0:0.34634922060552065] [0:1] [0:0.30318463816206914] [0:0.40822888811996189] [0:0.28522416629295039] [0:0.42219522025446293] [0:0.42849091651260984] [0:0.44884027994108305] [0:0.26234759312874162] [0:0.25766508033619245] [0:0.21208705717631907] [0:0.58565409378952038] [0:0.77857430240015579] [0:0.25581517293373035] [0:0.36693304627143197] [0:0.43213358550529385] [0:0.26877674326683365] [0:0.27690207120691679] [0:0.27424880145087321] [0:0.22897278183875827] [0:0.24149296825610841] [0:0.23995943405494449] [0:0.4150268139832507] [0:0.54651581319772868] [0:0.23990334727886711] [0:0.28773022543822735] [0:0.40191483734438344] [0:0.41278916060778187] [0:0.39065234346586741] [0:0.67972916103027337] [0:0.35591093223184667] [0:0.39515118617868117] [0:0.52963060016770702] [0:0.47644419013244466] [0:0.25751892766548934] [0:0.54879897526473287] [0:0.70262634283953296] [0:0.64287155318583866] [0:0.23641249616259002] [0:0.28869503194116414] [0:0.27284747016509153] [0:0.41236942089317274] [0:0.37500616196874303] [0:0.40610134421924032] [0:0.34502142382159456] [0:0.68677733047596623] [0:0.37267145137971586] [0:0.42287389782398105] [0:0.30358661721382807] [0:0.4991597017446357] [0:0.37686924973519359] [0:0.32328555741565818] [0:0.26007651316368163] [0:0.54504835707789268] [0:0.34064862822460862] [0:0.35235572542704469] [0:0.22191439537383015] [0:0.61257992013561169] [0:0.53929544789611561] [0:0.45637877466729876] [0:0.39081548781763703] [0:0.51717339358640024] [0:0.47821374999574329] [0:0.51551750632345794] [0:0.25771977706441884] [0:0.54736593895502417] [0:0.32142881121941352] [0:0.36462422066837519] [0:0.69833426225214912] [0:0.57535047537751094] [0:0.36341760507458148] [0:0.6607581707848087] [0:0.23732743812043161] [0:0.46790208660435317] [0:0.32161750869950428] [0:0.45708297053335778] [0:0.49837382832214344] [0:0.21377650236189044] [0:0.36202781338455797] [0:0.19702692823837933] [0:0.33797074750690503] [0:0.66539606293516018] [0:0.28495752716312561] [0:0.43537065173703476] [0:0.33779496708018808] [0:0.26243247841740708] [0:0.25615034050140828] [0:0.21979283007756112] [0:0.39127201293733566] [0:0.35498496915584238] [0:0.40439630485224293] [0:0.41391211269039663] [0:0.51973318537381508] [0:0.21488461750084673] [0:0.22409532883115563] [0:0.32443849528562935] [0:0.31398410344125405] [0:0.50953396089022629] [0:0.55965992701677691] [0:0.56889367018869119] [0:0.35606189234739916] [0:0.25549523909617056] [0:0.41416849040209769] [0:0.71066044282188245] [0:0.33853842479332891] [0:0.36700978330466971] [0:0.23184868007344442] [0:0.46487094281230767] [0:0.59582333914939845] [0:0.82417331776842362] [0:0.26367649602615723] [0:0.25369961611129482] [0:0.35031954506564161] [0:0.2167003931172346] [0:0.37957441803584718] [0:0.28116272864149033] [0:0.57793202474399397] [0:0.39108262530032512] [0:1] [0:0.48308867458403998] [0:0.53549939635238464] [0:0.43243558675008092] [0:0.48064015646967995] [0:0.46083345993717045] [0:1] [0:0.30302926995340224] [0:0.44989169857054112] [0:0.29622240839735242] [0:0.34533982973029831] [0:0.26524748773258594] [0:0.29805631271818972] [0:0.32914018042282267] [0:0.4339400504493362] [0:0.56318077897257024] [0:0.26839050544575216] [0:0.25586737567496171] [0:0.20463318535467845] [0:0.23011441000485039] [0:0.69835439741107808] [0:0.37710631511813697] [0:0.38039692712085477] [0:1] [0:0.26753770728372356] [0:0.29807499114042585] [0:0.31650212873145961] [0:0.32738352145900501] [0:1] [0:0.2583027382024391] [0:0.37403154979264519] [0:0.42514576393406106] [0:0.2440420012785787] [0:0.55892269341349499] [0:0.37759465583481128] [0:0.47532165041637192] [0:0.27017536889875937] [0:0.42731719121251471] [0:0.37689068891012734] [0:0.35241482180019224] [0:0.35385088559976369] [0:0.77560323277959919] [0:0.75448550589294083] [0:0.37606936079735326] [0:0.35031129687670726] [0:0.59434898124891322] [0:0.31409940474793713] [0:0.6464514689507509] [0:0.37914270143289958] [0:0.30528483214163094] [0:0.44944833269660911] [0:0.18402843620107392] [0:0.35542152728881826] [0:0.41372856483115633] [0:0.43178741394103215] [0:0.54429380525301185] [0:0.31972837018256994] [0:0.83345042833413374] [0:0.32776525997297068] [0:0.7080418151196971] [0:0.37998498312264389] [0:0.26058050627232748] [0:0.56157546100039679] [0:0.32821015128153819] [0:0.28210184971212421] [0:0.37416058668319124] [0:0.28465830885749882] [0:0.35616390252613406] [0:0.29211082272851246] [0:0.27835526104083658] [0:0.30898110336102408] [0:0.24583239944725535] [0:0.27307792768078437] [0:0.36937871508895959] [0:0.29792467043445919] [0:0.67608581832393011] [0:0.58853954827038013] [0:0.39383220543424674] [0:0.35220233265273088] [0:0.32923503119619379] [0:0.70928520061624967] [0:0.37880864043610496] [0:0.42585642533120149] [0:0.35236164017582383] [0:0.28256914013301015] [0:0.43976105392920772] [0:0.40992453182200256] [0:0.39379727268164377] [0:0.39897630285544411] [0:0.50757998847611374] [0:0.39049145578263111] [0:0.24875443477997974] [0:0.27124928980068763] [0:0.60666877016537435] [0:0.4729479249171602] [0:0.36575634648026473] [0:0.67992500600310113] [0:0.60557390880199269] [0:0.6074011907315775] [0:0.2899724801347463] [0:0.40152077798777097] [0:0.26474273788430341] [0:0.28467746663565802] [0:0.31091851724607261] [0:0.62609353403622847] [0:0.31137833830169509] [0:0.576681296404007] [0:0.45745819870922499] [0:0.26717489841253333] [0:0.48716628153266089] [0:0.42719617099055784] [0:0.26793059421174037] [0:0.27411345291335276] [0:0.74555077710424011] [0:0.26956868764620062] [0:0.4154596953954825] [0:0.38856852447009715] [0:0.42783384887184112] [0:0.29392450409787912] [0:0.65530696284659418] [0:0.27630266991637659] [0:0.27462596824376145] [0:0.27908924259260726] [0:0.69231698032130007] [0:0.48272930645052248] [0:0.52423344369525726] [0:0.48845180742663474] [0:0.5620329962890509] [0:0.37811163717009516] [0:0.64815627894602978] [0:0.50688593486316424] [0:0.5534656467454534] [0:0.69266880891988625] [0:0.38312797773245072] [0:0.28482603035238613] [0:0.23904284965457154] [0:0.317229606912169] [0:0.26240875699992777] [0:0.27682684613520642] [0:0.38328669438521867] [0:0.68159149604110381] [0:0.2623881038144743] [0:0.39939891515051518] [0:0.25254975031248317] [0:0.26628194929625154] [0:0.25651258758779993] [0:0.30786867615925828] [0:0.23846091190849258] [0:0.55854142411392449] [0:0.3375397505889009] [0:0.18220606771822342] [0:0.540485138320416] [0:0.48087918390322371] [0:0.45223961681486696] [0:0.36706352402318215] [0:0.58669413863952946] [0:0.2384256511683861] [0:0.29490420791639382] [0:0.30499476492658878] [0:0.22078746814431569] [0:0.238722923188736] [0:0.20932497837398722] [0:0.23131361934218539] [0:0.19813165776402197] [0:0.27187970430003616] [0:0.44778146948776287] [0:0.30164785957220874] [0:0.60875947048919243] [0:0.78110144588532338] [0:1] [0:0.26986927177744219] [0:0.83134188214250659] [0:0.21042159107157649] [0:0.54494612094720296] [0:0.23672873472908215] [0:0.24205085322742775] [0:0.47541918964744262] [0:0.74723892146656978] [0:0.27437179244853227] [0:0.6315649451415758] [0:0.52291300132591167] [0:0.77297111122791085] [0:0.8458853350190122] [0:0.35824887584462578] [0:0.33834163685147262] [0:0.24999413839717194] [0:0.26834828365019481] [0:0.41777570225393468] [0:0.31329603340885059] [0:0.36277392794711344] [0:0.26974539278876358] [0:0.67370893235741147] [0:0.30606884983548222] [0:0.72296767843874654] [0:0.42038796472279988] [0:0.7515410557187423] [0:0.47063197427702647] [0:0.72185909942918247] [0:0.37524865266674962] [0:1] [0:0.36622218641728199] [0:0.41557069629011839] [0:0.42553757084001292] [0:0.25756417338154725] [0:0.42146366545456831] [0:0.44497126029039802] [0:0.46494983322782557] [0:0.17682064413982962] [0:0.2680516295727518] [0:0.27395360686756953] [0:0.29525556830431482] [0:0.52981040508992305] [0:0.51426696643697645] [0:0.29261970377800067] [0:0.22459195262649523] [0:0.25534797979323293] [0:0.28335645566513945] [0:0.35870161684423713] [0:0.63562283860657898] [0:0.79948826150637065] [0:0.41614856513050263] [0:0.26167833451005285] [0:0.406226676502148] [0:0.27219230964645763] [0:0.34865285229699872] [0:0.41811795268687824] [0:0.31784427655214703] [0:0.29493676206756381] [0:0.49049315622357931] [0:0.3146189713075504] [0:0.27780454788670772] [0:0.25480198307582819] [0:0.22993278812362258] [0:0.25768807136439092] [0:0.36409859800731825] [0:0.25773771291890746] [0:0.35461933074368868] [0:0.39399432284744124] [0:0.42714769393553248] [0:0.67378467198909509] [0:0.38851567361824968] [0:1] [0:0.47075671232072136] [0:0.34131884705164833] [0:0.27435197226542746] [0:0.22377296929624227] [0:0.43665318763663513] [0:0.27041792847565227] [0:0.46957849625515319] [0:0.36058943930022502] [0:0.32199219818886021] [0:0.22969887964329505] [0:0.32483989148270209] [0:0.2768962936776394] [0:0.28780100920049195] [0:0.29124288429259226] [0:0.22273406883414076] [0:0.27566398064461073] [0:0.22573237905349283] [0:0.37572183505475942] [0:0.33023233076231961] [0:0.23917118779323548] [0:0.65440719419001347] [0:0.35108976098922545] [0:0.58655864230997012] [0:0.45677886017956731] [0:0.24948326919022124] [0:0.43105157113862314] [0:0.85463516935256911] [0:0.28058037065086366] [0:0.34506712403935019] [0:0.33077696255764466] [0:0.30930176070372328] [0:0.5142321605386484] [0:0.55972492100937243] [0:0.63444121966269562] [0:0.54323756781180443] [0:0.24514381742224295] [0:0.2550064545732797] [0:0.24749140051798646] [0:0.31730656554220266] [0:0.27851601688384542] [0:0.17729269597810537] [0:0.23220053341008326] [0:0.10968570078343851] [0:0.37738350918120867] [0:0.31611367708333377] [0:0.36339230318332733] [0:0.25065414791952012] [0:0.26190346533500902] [0:0.2300921359071206] [0:0.27512466723555912] [0:0.29927373850550509] [0:0.34163439440913884] [0:0.3459077964400914] [0:0.24865228383829602] [0:0.30507359245688392] [0:0.31765514720930416] [0:0.36123059444734162] [0:0.43997601620796734] [0:0.29325903896419753] [0:0.40038916610016739] [0:0.49121205751372687] [0:0.29661949963256939] [0:0.24297708868197271] [0:0.23300138067725484] [0:0.59439241789633812] [0:0.24685980894779899] [0:0.2689561891656615] [0:0.3247865194217367] [0:0.33955871460179904] [0:0.7861309679797106] [0:0.29058135556903331] [0:0.30796426334032551] [0:0.4326110981235966] [0:0.19186722853383628] [0:0.92921513203396855] [0:0.62056874977710341] [0:0.36322905725256655] [0:0.6117344818721836] [0:0.43032647050709566] [0:0.5623887736776898] [0:0.44398075825913214] [0:0.32925624829222083] [0:0.13335292119180372] [0:0.17394860194793693] [0:0.26151151625044627] [0:0.53585806523905644] [0:0.21278958054295996] [0:0.19751887360142972] [0:0.67280518505902132] [0:0.21455403579819798] [0:0.41480316456649285] [0:0.58790098892035181] [0:1] [0:0.57410571582180348] [0:0.34606489096430593] [0:0.36116199350796607] [0:0.49749759149245359] [0:0.36277399106594993] [0:0.63322605450708747] [0:0.46062690356594876] [0:0.66059327685133384] [0:0.61943865360215411] [0:0.41252917902025221] [0:0.60905006018789709] [0:0.30051342064682718] [0:0.55029435098615587] [0:0.4911521681039146] [0:0.17686831595342539] [0:0.36691590538159158] [0:0.50168189325487988] [0:0.36231015817461049] [0:0.25250982169423136] [0:0.17655080866417541] [0:0.28856862280120593] [0:0.3020337603903348] [0:0.53995925852189552] [0:0.42349621339933124] [0:0.34877192682132602] [0:0.29758296118659333] [0:0.3994265038301012] [0:0.40474447688105464] [0:0.22237983330839697] [0:0.33895596472167461] [0:0.30080466418079055] [0:0.2694353209893256] [0:0.45787571509371616] [0:0.31337998804047151] [0:0.46896622643250874] [0:0.23838608399432978] [0:0.8659851406421798] [0:0.50428465077679641] [0:0.6428031137700051] [0:0.41319389790703087] [0:0.48249863615976435] [0:0.21071759415529789] [0:0.30257378902268411] [0:0.29260052349501703] [0:1] [0:0.23894813883646868] [0:0.21205025461880517] [0:0.47283516919029944] [0:0.38259861865870853] [0:0.38461606117182778] [0:0.32435478766334686] [0:0.28265158096757159] [0:0.23381421439545039] [0:0.30835309064202149] [0:0.33840084783443086] [0:0.2709733673120146] [0:0.22763923559068444] [0:0.32468014807241441] [0:0.26094995014442468] [0:0.858694571176848] [0:0.37221485930858017] [0:0.29882623325758273] [0:0.61869075985018251] [0:0.47488254292076076] [0:0.22328897202390588] [0:0.40001365632533209] [0:0.28209337676883073] [0:0.42397174345236888] [0:0.47415923483701927] [0:0.36706352402318215] [0:0.26836310897767202] [0:0.25748766376154431] [0:0.39258070424897989] [0:0.22877288375478749] [0:0.35374186946953418] [0:0.38571343646554246] [0:0.437521319293184] [0:0.26146576055927839] [0:0.24039646545966209] [0:0.30526202108954303] [0:0.80487802959769472] [0:0.26249988949511521] [0:0.48645575649052031] [0:0.45328050413476573] [0:0.32616913399660674] [0:0.45243781461941357] [0:0.36278366654984018] [0:0.8429954872176677] [0:0.53525492343167003] [0:0.21454349996306668] [0:0.31071969452624748] [0:0.39819182662357711] [0:0.39479714786930808] [0:0.45940873707065805] [0:0.37433335768566284] [0:0.32050817755343319] [0:0.49194249404610207] [0:0.39994790928893187] [0:0.23018174939287867] [0:0.39747232437372032] [0:0.21628404753368674] [0:0.48538963195750773] [0:0.27348226428486178] [0:0.7079839752046807] [0:0.5026191207972206] [0:0.60605724904039915] [0:0.37483160949160998] [0:0.4328001957175947] [0:0.16325363894577818] [0:0.23146186770324428] [0:0.34594934250423481] [0:0.5306960381432424] [0:0.2866268515357635] [0:0.65229334390700788] [0:0.33858394548732201] [0:0.24515995462621049] [0:0.24475188927562883] [0:0.46589764518617804] [0:0.50541941064208418] [0:0.30253860209456518] [0:0.43894544004080116] [0:0.56290006415675864] [0:0.2211699839931589] [0:0.5499271282478343] [0:0.26107852435693563] [0:0.27802934581038286] [0:0.32819107585904062] [0:0.43958264866694685] [0:0.33417475404000407] [0:0.24195928491127183] [0:0.29910122836777236] [0:0.29387104690131832] [0:0.30993321713668415] [0:0.18623492028729069] [0:0.36624063104025456] [0:0.25880735389706483] [0:0.5828549643752573] [0:0.30598118187368017] [0:0.31533482820155906] [0:1] [0:0.34825098864296683] [0:0.83748648497549405] [0:0.26782670690054089] [0:0.40265432639855409] [0:0.20624329683618675] [0:0.23516201422687785] [0:0.2465613474044844] [0:0.5892649634805035] [0:0.79695637724799939] [0:0.33697597332332374] [0:0.22497431576302659] [0:0.24527662754053789] [0:0.3041711259076097] [0:0.26018347671731173] [0:0.92664077864123684] [0:0.45855402979208487] [0:0.42492037173015668] [0:0.57354464056025245] [0:0.24199583168501729] [0:0.26378105089270304] [0:0.62118155530053365] [0:0.33438454256909794] [0:0.23820151865990338] [0:0.26386237784845329] [0:0.43584975674703835] [0:0.20111631929467363] [0:0.4465844234837979] [0:0.51621648867737246] [0:0.70759944286171073] [0:0.66570015670358329] [0:0.30247770823736891] [0:0.53309429726481938] [0:0.38391792149281817] [0:0.20951066182937866] [0:0.21776800471725286] [0:0.30691598093873984] [0:0.41360823605592734] [0:0.49345795316050578] [0:0.26774512197963213] [0:0.36866471380965693] [0:0.43046204727019594] [0:0.34677069589235382] [0:0.37732535874235223] [0:0.40932531785470744] [0:0.2626054061941191] [0:0.26586114621032925] [0:0.27532497136443906] [0:0.48838814441225131] [0:0.29548432810180997] [0:0.55951695666488854] [0:0.56209779772515189] [0:1] [0:0.30843184809508378] [0:0.2830829584721351] [0:0.70546655853492313] [0:0.29870070975272578] [0:0.20513834348493734] [0:0.29162749554243278] [0:0.62755243258401194] [0:0.56582564680076308] [0:0.31973758808374331] [0:0.30316772579584228] [0:0.49631060177155739] [0:1] [0:0.53829677250014629] [0:0.26561224964349339] [0:0.27626644002260492] [0:0.2315569856736952] [0:0.23490703290788045] [0:0.37400165114901857] [0:0.3936760626345554] [0:0.26148524092740749] [0:0.27658222172965075] [0:0.47529988648740928] [0:0.27507272634481372] [0:0.32575690954649816] [0:0.28551382321008822] [0:0.23435443670761016] [0:0.12785505380188705] [0:0.20383032279126298] [0:0.26378340336006606] [0:0.416090052898621] [0:0.36689530130064274] [0:0.84163140369339873] [0:0.41445016687434622] [0:0.57978952679647622] [0:0.83323608234991586] [0:0.42596668156905415] [0:0.29863965057453024] [0:0.35266158678851911] [0:0.50485877337210938] [0:0.60122805543751268] [0:0.22396576790994119] [0:0.38547848993993472] [0:0.38803303659632227] [0:0.18406142906107714] [0:0.30021108810159092] [0:0.21902476074544769] [0:0.23733738883722164] [0:0.28558653606474788] [0:0.3912797892343452] [0:0.41583389200731874] [0:0.24123376312565123] [0:0.67828076076559285] [0:0.25375936147980738] [0:0.24280926448249135] [0:0.23703942388856025] [0:0.52987251081826403] [0:0.6750314148191946] [0:0.35105884322720621] [0:0.3156484977973294] [0:0.28000115984946694] [0:0.37773942438294111] [0:0.47926222141907682] [0:0.23325608308715756] [0:0.20379305873365466] [0:0.36592474165756839] [0:0.35928889556171528] [0:0.45527042281961083] [0:0.38461963235302721] [0:0.33562361792585649] [0:0.25912152480719697] [0:0.1882152145245542] [0:0.36693304627143197] [0:0.40245568744955451] [0:0.33513198444555464] [0:0.25699922951482168] [0:0.23419218309958822] [0:0.33654890635550705] [0:0.25580234270299135] [0:0.37325009643047763] [0:0.39644019077251802] [0:0.30819522818886164] [0:0.394562588009782] [0:0.28768374938826474] [0:0.34161831980109286] [0:0.63773955382773428] [0:0.30929891173278073] [0:0.31729430215928339] [0:0.28640511138944336] [0:0.25900409013601022] [0:0.26369893084391094] [0:0.74382333488286223] [0:0.22165808958736527] [0:0.35874352167876661] [0:0.27479880727725947] [0:0.35297637029359774] [0:0.28507828856901546] [0:0.37412354914584106] [0:0.40198678612076261] [0:0.20734733658763871] [0:0.48987128767446569] [0:0.41819239925870477] [0:0.50693353149425302] [0:0.30901630338554742] [0:0.50371159486156292] [0:0.28170344568884814] [0:0.24775864059661312] [0:0.32197925267770106] [0:0.33118155633178442] [0:0.5536776401019573] [0:1] [0:0.49907705272859182] [0:0.31841085532809116] [0:0.56879551465871414] [0:0.19023916953689446] [0:0.75654485671809935] [0:0.22635789979600279] [0:0.3358414529310883] [0:0.26378843002984165] [0:0.43360079403201984] [0:0.39492335762460923] [0:0.31509500523780581] [0:0.23529109704580031] [0:0.31013163974931879] [0:0.34144389017557281] [0:0.2231054289570962] [0:0.27441815065656794] [0:0.22703216676018556] [0:0.62835204593536942] [0:0.3391862655381821] [0:0.25649378008897605] [0:0.31251105761155357] [0:0.34512395323220685] [0:0.34270971195007566] [0:0.33456886206569114] [0:0.28833082836270019] [0:0.28564091041174561] [0:0.34626093829009807] [0:0.32697462443926228] [0:0.5319422815687086] [0:0.28797143057679886] [0:0.55542526059119701] [0:0.29852508636894159] [0:0.46895049928458549] [0:0.29049141187917693] [0:0.42900347002816108] [0:0.58326419826983722] [0:0.62616108084075472] [0:0.29639749891955297] [0:0.27430062350339501] [0:0.45211196956741895] [0:0.3398083335620945] [0:0.53624966706240651] [0:0.34141196003945867] [0:0.2206716133887377] [0:0.33103198488181379] [0:0.5432460913200805] [0:0.35831226528208404] [0:0.21296046988192824] [0:0.32866633965008085] [0:0.260175404221405] [0:0.25258309696185149] [0:0.28287239512296841] [0:0.32667451278430448] [0:0.25096970895508652] [0:0.33203557371627646] [0:0.79313178235720627] [0:0.25139647221117278] [0:0.307589470942148] [0:0.35692845518079919] [0:0.87638691788051681] [0:0.44498375928274386] [0:0.53660764308819042] [0:0.24194530756699989] [0:0.79215927449614176] [0:0.23217362639783912] [0:0.27984212195760222] [0:0.33073216244062104] [0:0.43243189003740107] [0:0.28934405676854386] [0:0.30403063022161331] [0:0.35684749104147567] [0:0.33934075895923693] [0:0.37408725675343885] [0:0.50171803039435592] [0:0.50227025382068169] [0:0.35236957700931021] [0:0.348225242792565] [0:0.45821235595290871] [0:0.39851979088603057] [0:0.30829664359440317] [0:0.51784445962607084] [0:0.56626226804036361] [0:0.80863566694006317] [0:0.37766028373696126] [0:0.36902048305794494] [0:0.35803002065730039] [0:0.53480603051930886] [0:0.67666570505489687] [0:0.32868032375859463] [0:0.37583336881934554] [0:0.20170480787754713] [0:0.26892823260766041] [0:0.47677920789680628] [0:0.82494401328546063] [0:0.82573028519575975] [0:0.3322879081046432] [0:0.29081385619538336] [0:0.60080003099869905] [0:0.62184028337291497] [0:0.34229731397123531] [0:0.53309325642984229] [0:0.3254754728193493] [0:0.66952646680712347] [0:0.35108182817788769] [0:0.22413297052052608] [0:0.25229117742346385] [0:0.63707984906322956] [0:0.4364364135217777] [0:0.53850635748310527] [0:0.5249981495161401] [0:0.25967401300802551] [0:0.50359603442038325] [0:0.2608839265545066] [0:0.24024704336475258] [0:0.31785923216559975] [0:0.26458076423332105] [0:0.45678198967007599] [0:0.40645941226823962] [0:0.26372308085082791] [0:0.26636421055870679] [0:0.63403327695700629] [0:0.23670136939332392] [0:0.28642584711689467] [0:0.22397126234000936] [0:0.31392598771684066] [0:0.28306698389699192] [0:0.28116548635023353] [0:0.42086957891017507] [0:0.23610769604741308] [0:0.38552478488722325] [0:0.49853889093262654] [0:0.29184631228929586] [0:0.48123084089468182] [0:0.26536341153302501] [0:0.47574097973746066] [0:0.24186797875015803] [0:0.34954938014075082] [0:1] [0:0.21326006376901707] [0:0.16423952147748519] [0:0.26819384992841888] [0:0.410983463011312] [0:0.26538820606148628] [0:0.32888776863040725] [0:0.23651876849338122] [0:0.30357505112492245] [0:0.29133180353345434] [0:0.24843242101880467] [0:0.31915191332937176] [0:0.36220669997327815] [0:0.39634815818260544] [0:0.24761199036741433] [0:0.26972799959088867] [0:0.73504055721934003] [0:0.27236172131706815] [0:0.50768727371462108] [0:0.5186263506351364] [0:0.23379991753941012] [0:0.29361033485531302] [0:0.59451845652236601] [0:0.4990953041649604] [0:0.6729753988775542] [0:0.42986219605150572] [0:0.48617940293568274] [0:0.41444833304816958] [0:0.37025757957925592] [0:0.40158831220696589] [0:0.3135642670064191] [0:0.54794103405026129] [0:0.60814887234096926] [0:0.38243305845171088] [0:0.41768780399464456] [0:0.63947845171943696] [0:0.35952850931680636] [0:0.27280903295936049] [0:0.27654197668509678] [0:0.22610753923154669] [0:0.2536293201920462] [0:0.26205633219748581] [0:0.28604586223925327] [0:0.25770081920253146] [0:0.24327044215219337] [0:0.2816413537028421] [0:0.37844692350820464] [0:0.36009598739474652] [0:0.23715437492031119] [0:0.29067831874421329] [0:0.23232033319990544] [0:0.24777344349992378] [0:0.320419891535416] [0:0.31505350757761297] [0:0.26211557840631988] [0:0.35169184401856857] [0:0.200574072955232] [0:0.21051101384953605] [0:0.36883206360415921] [0:0.58553507170061003] [0:0.53661879854952999] [0:0.23365619774681429] [0:0.25350042439602299] [0:0.26741991982383023] [0:0.28025153641472378] [0:0.50492095659362501] [0:0.29397343523172681] [0:1] [0:0.33338581955967672] [0:0.1871867208684812] [0:0.3158164517195528] [0:0.22983361079686065] [0:0.2740631896123138] [0:0.33197241550008555] [0:0.33183445167610842] [0:0.24349488645580986] [0:0.26913046610521607] [0:0.36901257578249491] [0:0.36136577266081443] [0:0.31851942950525974] [0:0.32272515077919428] [0:0.26163631084330491] [0:0.49338698465834779] [0:0.21926397220051383] [0:0.78951313845053817] [0:0.38060247638161421] [0:0.30992514433124529] [0:0.31321403670219999] [0:0.34826371293304026] [0:0.50790033411827196] [0:0.56561755083057386] [0:0.53128558000356774] [0:0.79740889485082278] [0:0.31379920516594012] [0:0.60314770415743213] [0:0.45966060876086007] [0:0.34900535205744176] [0:0.27900166081679323] [0:0.25422700335908854] [0:0.32290453600316155] [0:0.59149261819480958] [0:0.28938941085191872] [0:1] [0:0.77756079846628356] [0:0.20858156140736903] [0:0.50965044118190816] [0:0.23034772077013213] [0:0.53790541140405823] [0:0.30526202108954303] [0:0.17241568241209182] [0:0.74089480679072173] [0:0.54256988464084177] [0:0.53843208226126671] [0:0.48921947434903185] [0:0.19554778556248179] [0:0.25027565202413915] [0:0.42059611582438677] [0:0.21925778197164073] [0:0.25570591950208826] [0:0.31719365714858899] [0:0.35362182829015032] [0:0.45736051313650822] [0:0.32795177466670722] [0:0.22215130803116329] [0:0.25632519991244707] [0:0.34134270805731093] [0:0.40331424084478468] [0:0.32695190141147557] [0:0.68884827226320988] [0:0.27833478502774411] [0:0.29912905114885807] [0:0.24777988348218802] [0:0.42397928793809464] [0:0.53955213524759693] [0:0.28985224931947207] [0:0.32945652750870019] [0:0.39723451336988669] [0:0.54548220868716468] [0:0.61085110508635132] [0:0.35631392815417179] [0:0.30739687958723461] [0:0.30209331214206714] [0:0.65680346629667785] [0:0.38310199564945785] [0:0.45570507329814436] [0:0.34649794183188859] [0:0.2930086436164015] [0:0.27061827933184196] [0:0.22847178469107962] [0:0.41475089240307167] [0:0.40126453911985765] [0:0.39106397978078306] [0:0.26670544531082974] [0:0.39859047247227425] [0:0.5878447123079662] [0:0.3840484413882756] [0:1] [0:0.50003390658379432] [0:0.42092761655814065] 